svm_type c_svc
kernel_type rbf
gamma 0.5
nr_class 2
total_sv 1128
rho 0.19718
label 1 2
nr_sv 490 638
SV
1.145911212259893 1:0.192118 2:-0.39756 3:-0.469707 4:-0.182123 5:-0.905138 6:0.476261 7:-0.568842 8:-0.865507 9:-0.938647 10:-0.57488 11:-0.879227 12:-0.763284 13:-0.821255 14:-0.952569 15:-0.666668 16:-1 17:-1 18:-1 19:-1 20:-1 21:-1 22:-1 23:-1 24:-1 28:-1 30:-0.153259 31:-0.313177 32:0.163141 33:-0.313177 34:-0.369613 35:0.163141 36:-0.153259 37:-0.313177 38:0.163141 39:-0.313177 40:-0.369613 41:0.163141 42:0.293071 43:0.508209 44:0.541131 45:0.195897 46:0.143979 47:0.154821 48:-0.674888 49:-0.895666 50:-0.162489 51:0.184438 52:-0.31661 53:-0.179155 54:-0.0668174 55:0.184407 56:-0.180696 57:-0.429975 58:-0.450373 59:-0.801749 60:0.633346 61:1 
1.14204400980572 1:1 2:-0.589645 3:-0.516348 4:-0.410229 5:-0.970248 6:0.293821 7:-0.252275 8:-0.873455 9:-0.499696 10:-0.733334 11:-0.924242 12:-0.851515 13:-0.943939 14:-0.910744 15:-1 16:-1 17:-1 18:-1 19:-1 20:-1 21:-1 22:-1 23:-1 24:-1 28:-1 30:-0.466715 31:-0.224343 32:0.048598 33:-0.224343 34:0.428092 35:0.048598 36:-0.466715 37:-0.224343 38:0.048598 39:-0.224343 40:0.428092 41:0.048598 42:-0.0981692 43:-0.175455 44:-0.0295155 45:0.10422 46:-0.00268666 47:-0.0219856 48:-0.62721 49:0.0399505 50:0.840283 51:-1 52:0.587716 53:1 54:0.718843 55:0.975018 56:0.281593 57:0.735296 58:-0.372998 59:0.812604 60:0.812718 61:-1 
0.1576440801918353 1:-0.655172 2:0.475734 3:-0.744624 4:-0.584918 5:-1 6:0.676875 7:-0.596153 8:-0.910769 9:-1 10:-0.717949 11:-1 12:-0.685897 13:-1 14:-1 15:-1 16:-1 17:-1 18:-1 19:-1 20:-1 21:-1 22:-1 23:-1 24:-1 28:-1 30:-0.802021 31:0.307684 32:-0.355585 33:0.307684 34:0.104909 35:-0.355585 36:-0.802021 37:0.307684 38:-0.355585 39:0.307684 40:0.104909 41:-0.355585 42:-0.624467 43:-0.566014 44:-0.589534 45:-0.619928 46:-0.566009 47:-0.495766 48:-0.715761 49:-0.88838 50:-1 51:-1 52:0.113434 53:0.15252 54:0.191066 55:0.376149 56:0.219504 57:0.147428 58:-0.718877 59:-0.7038 60:-1 61:-1 
0.07290708428515022 1:-0.55665 2:0.434726 3:-0.520199 4:-0.159242 5:-0.788856 6:0.463431 7:-0.60484 8:-1 9:-0.863441 10:-0.526882 11:-1 12:-0.209677 13:-0.60215 14:-1 15:-1 16:-1 17:-1 18:-1 19:-1 20:-1 21:-1 22:-1 23:-1 24:-1 28:-1 30:-0.338287 31:-0.491577 32:-0.379439 33:-0.491577 34:-0.42022 35:-0.379439 36:-0.338287 37:-0.491577 38:-0.379439 39:-0.491577 40:-0.42022 41:-0.379439 42:-0.0310155 43:0.0100213 44:0.125633 45:-0.00444178 46:0.174784 47:0.0505015 48:-0.812898 49:-0.987563 50:-0.708221 51:-1 52:-0.165952 53:0.252411 54:-0.101363 55:-0.141403 56:-0.323377 57:-0.461323 58:-0.712131 59:-0.790215 60:-0.917462 61:-1 
0.2968911397281809 1:-0.674877 2:0.481574 3:-0.665523 4:-0.351247 5:-0.869091 6:0.704479 7:-0.79 8:-1 9:-0.830666 10:-0.706667 11:-1 12:-1 13:-0.506666 14:-1 15:-1 16:-1 17:-1 18:-1 19:-1 20:-1 21:-1 22:-1 23:-1 24:-1 28:-1 30:-0.447448 31:-0.417605 32:-0.483983 33:-0.417605 34:-0.443694 35:-0.483983 36:-0.447448 37:-0.417605 38:-0.483983 39:-0.417605 40:-0.443694 41:-0.483983 42:-0.265506 43:-0.282679 44:-0.118214 45:-0.17931 46:0.0208233 47:-1 48:-0.140115 49:-0.747355 50:-0.893464 51:-0.603466 52:-0.267953 53:-0.0150975 54:-0.0577911 55:0.136367 56:-0.223997 57:-1 58:-0.560274 59:-0.78969 60:-0.90787 61:-0.676134 
1.642847458642555 1:-0.330049 2:0.0885301 3:-0.887082 4:-0.924404 5:-0.768984 6:0.769046 7:-0.711765 8:-0.945412 9:-1 10:-1 11:-1 12:-1 13:-1 14:-1 15:-1 16:-1 17:-1 18:-1 19:-1 20:-1 21:-1 22:-1 23:-1 24:-1 28:-1 30:-0.103483 31:0.318857 32:0.262064 33:0.318857 34:-0.447268 35:0.262064 36:-0.103483 37:0.318857 38:0.262064 39:0.318857 40:-0.447268 41:0.262064 42:-0.508946 43:-0.552356 44:0.368641 45:0.37356 46:0.518644 47:0.324689 48:-0.701851 49:-0.798884 50:-0.0772867 51:-1 52:-0.285071 53:-0.0557329 54:-0.0591278 55:-0.0728346 56:-0.36995 57:-0.316775 58:-0.794056 59:-0.837034 60:0.126006 61:-1 
0.7854680792740514 1:-0.655172 2:0.477864 3:-0.695823 4:-0.388535 5:-0.748252 6:0.555095 7:-0.596153 8:-1 9:-1 10:-0.717949 11:-0.358975 12:-1 13:-0.76282 14:-1 15:-1 16:-1 17:-1 18:-1 19:-1 20:-1 21:-1 22:-1 23:-1 24:-1 28:-1 30:-0.432905 31:-0.401929 32:0.205159 33:-0.401929 34:-0.484035 35:0.205159 36:-0.432905 37:-0.401929 38:0.205159 39:-0.401929 40:-0.484035 41:0.205159 42:-0.459056 43:-0.213983 44:-0.152984 45:-0.206645 46:-0.0418808 47:-0.622983 48:-0.775827 49:-0.874839 50:-0.670873 51:-1 52:-0.314378 53:-0.132333 54:-0.196537 55:0.0664757 56:-0.238749 57:-0.661779 58:-0.770138 59:-0.630838 60:-0.690962 61:-1 
0.3718362134812586 1:-0.182266 2:-0.540912 3:-0.529167 4:-0.35601 5:-0.934546 6:0.472284 7:-0.615 8:-0.8608 9:-0.576666 10:-0.560001 11:-0.666667 12:-1 13:-1 14:-0.869091 15:-1 16:-1 17:-1 18:-1 19:-1 20:-1 21:-1 22:-1 23:-1 24:-1 28:-1 30:-0.685754 31:0.0530062 32:-0.017404 33:0.0530062 34:-0.242371 35:-0.017404 36:-0.685754 37:0.0530062 38:-0.017404 39:0.0530062 40:-0.242371 41:-0.017404 42:-0.242505 43:-0.11828 44:-0.0702978 45:-0.183014 46:-0.520516 47:-0.58298 48:-0.845395 49:-0.755639 50:-0.926889 51:-1 52:-0.0464055 53:0.120582 54:0.130591 55:0.309458 56:0.0710447 57:0.113019 58:-0.879569 59:-0.819318 60:-0.864986 61:-1 
1.15547272277343 1:-0.852217 2:0.451521 3:0.140598 4:0.187617 5:-1 6:0.118715 7:-0.671875 8:-0.855 9:-0.735416 10:-0.0833358 11:0.0416667 12:-1 13:0.927085 14:-1 15:-1 16:-1 17:-1 18:-1 19:-1 20:-1 21:-1 22:-1 23:-1 24:-1 28:-1 30:-0.429632 31:-0.0845906 32:0.143041 33:-0.0845906 34:-0.910309 35:0.143041 36:-0.429632 37:-0.0845906 38:0.143041 39:-0.0845906 40:-0.910309 41:0.143041 42:-0.615305 43:-0.371291 44:-0.339485 45:-0.240079 46:-0.455985 47:0.024466 48:-0.519336 49:-1 50:-1 51:-1 52:-0.826271 53:-0.735358 54:-0.828276 55:-0.61526 56:-0.690405 57:-0.598596 58:-0.730862 59:-1 60:-1 61:-1 
0.0326356857306672 1:-0.64532 2:0.484378 3:-0.791387 4:-0.580059 5:-0.506004 6:0.484631 7:-0.603772 8:-0.824906 9:-1 10:-0.723272 11:-1 12:-0.691824 13:-1 14:-1 15:-1 16:-1 17:-1 18:-1 19:-1 20:-1 21:-1 22:-1 23:-1 24:-1 28:-1 30:-0.5391 31:-0.361551 32:-0.401824 33:-0.361551 34:-0.380243 35:-0.401824 36:-0.5391 37:-0.361551 38:-0.401824 39:-0.361551 40:-0.380243 41:-0.401824 42:-0.219687 43:-0.225211 44:-0.129881 45:-0.18103 46:0.0503808 47:-0.461921 48:-0.770275 49:-1 50:-0.828703 51:-0.491274 52:-0.136405 53:0.111759 54:0.0494924 55:-0.0159848 56:-0.280978 57:-0.745536 58:-0.714662 59:-1 60:-0.754896 61:-0.539237 
0.1624830311257142 1:-0.389163 2:0.20318 3:-0.617289 4:-0.193189 5:-0.834292 6:0.641421 7:-0.689874 8:-0.941266 9:-0.892827 10:-1 11:-1 12:-1 13:-1 14:-0.751439 15:-1 16:-0.740507 17:-1 18:-1 19:-1 20:-1 21:-1 22:-1 23:-1 24:-1 28:-1 30:-0.0260868 31:-0.213797 32:-0.498299 33:-0.213797 34:-0.499854 35:-0.498299 36:-0.0260868 37:-0.213797 38:-0.498299 39:-0.213797 40:-0.499854 41:-0.498299 42:0.0742717 43:0.265147 44:0.489249 45:0.260756 46:0.291332 47:0.407464 48:-0.355874 49:-0.72753 50:-0.680635 51:-0.76231 52:-0.0869719 53:0.0832868 54:0.304413 55:-0.530878 56:-0.811509 57:-0.669577 58:-0.872135 59:-0.954005 60:-0.967116 61:-0.996112 
3.000199226722638 1:-0.694581 2:0.196235 3:-0.912113 4:-0.928421 5:-0.863637 6:0.910288 7:-0.927084 8:-0.903333 9:-1 10:-1 11:-1 12:-1 13:-1 14:-1 15:-1 16:-1 17:-1 18:-1 19:-1 20:-1 21:-1 22:-1 23:-1 24:-1 28:-1 30:-0.605695 31:-0.0972508 32:0.144899 33:-0.0972508 34:-0.80317 35:0.144899 36:-0.605695 37:-0.0972508 38:0.144899 39:-0.0972508 40:-0.80317 41:0.144899 42:-0.553951 43:-0.328681 44:-0.27317 45:-0.44054 46:-0.608537 47:-0.620674 48:-0.314598 49:-0.483374 50:-0.688459 51:-0.512953 52:-0.624368 53:-0.468503 54:-0.553126 55:-0.586087 56:-0.480651 57:-0.436137 58:-0.513573 59:-0.824826 60:-0.745638 61:-0.95122 
0.5363015563156103 1:-0.438424 2:-0.148099 3:-0.631408 4:-0.384361 5:-1 6:0.642865 7:-0.716216 8:-0.937297 9:-0.656756 10:-1 11:-0.774775 12:-0.558559 13:-0.833333 14:-1 15:-1 16:-1 17:-1 18:-1 19:-1 20:-1 21:-1 22:-1 23:-1 24:-1 28:-1 30:-0.396679 31:-0.406631 32:-0.633405 33:-0.406631 34:-0.355948 35:-0.633405 36:-0.396679 37:-0.406631 38:-0.633405 39:-0.406631 40:-0.355948 41:-0.633405 42:-0.13738 43:-0.261488 44:-0.253394 45:-0.176902 46:-0.024414 47:-0.0292182 48:-0.784574 49:-0.933066 50:-1 51:-0.12694 52:-0.209469 53:-0.0371744 54:0.0128134 55:0.120689 56:-0.465945 57:-0.124782 58:-0.61569 59:-0.8867 60:-1 61:0.210137 
0.8690180616458321 1:-0.793103 2:0.49782 3:-0.841468 4:-0.649652 5:-0.827751 6:0.708923 7:-0.723684 8:-0.877895 9:-1 10:-1 11:-0.561403 12:-1 13:-1 14:-1 15:-1 16:-1 17:-1 18:-1 19:-1 20:-1 21:-1 22:-1 23:-1 24:-1 28:-1 30:-0.653323 31:-0.0286687 32:0.252849 33:-0.0286687 34:-0.711231 35:0.252849 36:-0.653323 37:-0.0286687 38:0.252849 39:-0.0286687 40:-0.711231 41:0.252849 42:-0.855746 43:-0.750637 44:-0.849167 45:-0.712049 46:-0.708341 47:-1 48:-0.865874 49:-1 50:-0.74134 51:-0.704488 52:-0.58941 53:-0.575726 54:-0.567068 55:-0.16214 56:-0.291285 57:-1 58:-0.370582 59:-1 60:-0.726769 61:0.0575071 
0.1989839453555398 1:-0.694581 2:0.471642 3:-0.899071 4:-0.893457 5:-0.863637 6:0.822335 7:-0.78125 8:-0.903333 9:-1 10:-1 11:-1 12:-1 13:-1 14:-1 15:-1 16:-1 17:-1 18:-1 19:-1 20:-1 21:-1 22:-1 23:-1 24:-1 28:-1 30:-0.410077 31:-0.539466 32:-0.365103 33:-0.539466 34:-0.391265 35:-0.365103 36:-0.410077 37:-0.539466 38:-0.365103 39:-0.539466 40:-0.391265 41:-0.365103 42:-0.18356 43:-0.204652 44:-0.159751 45:-0.158452 46:0.0569374 47:0.211033 48:-0.818566 49:-0.833816 50:-1 51:-1 52:-0.355967 53:-0.125023 54:-0.0821643 55:0.00320394 56:-0.296325 57:-0.260747 58:-0.935809 59:-0.878002 60:-1 61:-1 
2.702267881562499 1:-0.635468 2:0.182293 3:-0.491925 4:0.00315994 5:-0.878788 6:0.651317 7:-0.870371 8:-0.828148 9:-1 10:-1 11:-1 12:-0.697531 13:-0.771605 14:-0.757576 15:-1 16:-0.620371 17:-1 18:-1 19:-1 20:-1 21:-1 22:-1 23:-1 24:-1 28:-1 30:-0.747416 31:-0.0419235 32:0.0525155 33:-0.0419235 34:-0.400109 35:0.0525155 36:-0.747416 37:-0.0419235 38:0.0525155 39:-0.0419235 40:-0.400109 41:0.0525155 42:-0.705624 43:-0.57259 44:-0.383421 45:-0.497497 46:-0.358755 47:-0.805048 48:-0.78868 49:-0.591893 50:-0.760345 51:-1 52:-0.250751 53:-0.166466 54:-0.468568 55:-0.00656511 56:-0.189176 57:-0.623684 58:-0.215753 59:0.128382 60:-0.226547 61:-1 
1.211597723204862 1:-0.408867 2:0.0496859 3:-0.772304 4:-0.306026 5:-0.829989 6:0.822907 7:-0.863637 8:-1 9:-1 10:-0.809525 11:-0.78355 12:-1 13:-1 14:-1 15:-1 16:-1 17:-1 18:-1 19:-0.52381 20:-1 21:-1 22:-1 23:-1 24:-1 28:-1 30:-0.286959 31:0.186444 32:-0.2296 33:0.186444 34:-0.361814 35:-0.2296 36:-0.286959 37:0.186444 38:-0.2296 39:0.186444 40:-0.361814 41:-0.2296 42:0.115949 43:0.271867 44:0.29495 45:0.285444 46:-0.274791 47:-0.28082 48:-0.230415 49:-0.648089 50:-0.586566 51:-1 52:0.290026 53:0.324257 54:-0.08002 55:0.0500437 56:-0.430534 57:-0.57531 58:-0.30731 59:-0.562922 60:-0.654782 61:-1 
0.4062282572740112 1:-0.665025 2:0.487857 3:-0.825839 4:-0.622802 5:-0.871658 6:0.793881 7:-0.794118 8:-0.90902 9:-1 10:-1 11:-1 12:-0.679739 13:-1 14:-1 15:-1 16:-1 17:-1 18:-1 19:-1 20:-1 21:-1 22:-1 23:-1 24:-1 28:-1 30:-0.791901 31:-0.070811 32:-0.437634 33:-0.070811 34:-0.0544402 35:-0.437634 36:-0.791901 37:-0.070811 38:-0.437634 39:-0.070811 40:-0.0544402 41:-0.437634 42:-0.623231 43:-0.650375 44:-0.688144 45:-0.633681 46:-0.674166 47:-0.667322 48:-0.828209 49:-1 50:-0.874884 51:-0.760596 52:0.0644166 53:0.229192 54:0.261961 55:0.419561 56:0.197877 57:-0.130208 58:-0.289382 59:-1 60:-0.747059 61:-0.0281066 
1.557999576742347 1:-0.655172 2:0.694269 3:-0.616941 4:-0.325248 5:-1 6:0.595689 7:-0.596153 8:-1 9:-0.674359 10:-1 11:-1 12:-0.371796 13:-0.76282 14:-1 15:-1 16:-1 17:-1 18:-1 19:-1 20:-1 21:-1 22:-1 23:-1 24:-1 28:-1 30:-0.0987378 31:0.259183 32:-0.238249 33:0.259183 34:-0.714099 35:-0.238249 36:-0.0987378 37:0.259183 38:-0.238249 39:0.259183 40:-0.714099 41:-0.238249 42:-0.0307767 43:0.0701639 44:0.164034 45:0.479528 46:0.472767 47:-0.14596 48:-1 49:-0.297995 50:-0.391975 51:-1 52:-0.55349 53:-0.88882 54:-0.56008 55:-0.323984 56:-0.544949 57:-0.352909 58:-1 59:-0.5445 60:-0.810521 61:-1 
1.021645583458565 1:0.55665 2:-0.49959 3:-0.725478 4:-0.679885 5:-0.887792 6:0.53561 7:-0.420001 8:-0.840914 9:-1 10:-0.832381 11:-1 12:-0.813333 13:-1 14:-1 15:-1 16:-1 17:-1 18:-1 19:-1 20:-1 21:-1 22:-1 23:-1 24:-1 28:-1 30:-0.0488254 31:-0.124819 32:-0.467068 33:-0.124819 34:-0.356193 35:-0.467068 36:-0.0488254 37:-0.124819 38:-0.467068 39:-0.124819 40:-0.356193 41:-0.467068 42:0.232312 43:0.440144 44:0.513315 45:0.488927 46:0.22199 47:-0.107386 48:-0.364015 49:-0.777034 50:0.322089 51:-1 52:-0.0260961 53:0.202627 54:0.197894 55:0.0430366 56:-0.212038 57:-0.113541 58:-0.64589 59:-0.820756 60:0.333654 61:-1 
0.1752555234444315 1:-0.64532 2:0.499544 3:-0.645113 4:-0.329862 5:-0.876501 6:0.524458 7:-0.537738 8:-0.912453 9:-0.840251 10:-1 11:-1 12:-0.691824 13:-0.534591 14:-1 15:-1 16:-1 17:-1 18:-1 19:-1 20:-1 21:-1 22:-1 23:-1 24:-1 28:-1 30:-0.635347 31:-0.450328 32:-0.429178 33:-0.450328 34:-0.166997 35:-0.429178 36:-0.635347 37:-0.450328 38:-0.429178 39:-0.450328 40:-0.166997 41:-0.429178 42:-0.267693 43:-0.616645 44:-0.455983 45:-0.56857 46:-0.323778 47:-0.996095 48:-0.545238 49:-0.746348 50:-1 51:-1 52:-0.109409 53:0.1493 54:0.0846008 55:0.340418 56:0.069557 57:-0.723163 58:-0.23888 59:-0.699158 60:-1 61:-1 
0.1690560674403046 1:-0.704433 2:0.485642 3:-0.795778 4:-0.576623 5:-1 6:0.727834 7:-0.62766 8:-1 9:-1 10:-1 11:-0.29078 12:-1 13:-1 14:-1 15:-1 16:-1 17:-1 18:-1 19:-1 20:-1 21:-1 22:-1 23:-1 24:-1 28:-1 30:-0.654477 31:-0.423924 32:-0.467331 33:-0.423924 34:0.0274298 35:-0.467331 36:-0.654477 37:-0.423924 38:-0.467331 39:-0.423924 40:0.0274298 41:-0.467331 42:-0.561754 43:-0.67341 44:-0.535176 45:-0.498931 46:-0.0850661 47:-0.253281 48:-1 49:-0.927938 50:-0.754983 51:-0.73823 52:0.0189662 53:0.197721 54:0.22772 55:0.327642 56:0.0183335 57:-0.00462342 58:-1 59:-0.751578 60:-0.82373 61:-0.425605 
0.1883787905710312 1:0.0147783 2:-0.551082 3:-0.0199104 4:-0.0151284 5:-1 6:-0.365026 7:0.604164 8:-0.806666 9:-0.717777 10:-0.877778 11:-0.305555 12:-0.727777 13:-0.588889 14:-1 15:-0.744444 16:-0.829167 17:-0.83 18:-1 19:-1 20:-1 21:-1 22:-1 23:-1 24:-1 28:-1 30:0.0880376 31:-0.163186 32:-0.278168 33:-0.163186 34:-0.419613 35:-0.278168 36:0.0880376 37:-0.163186 38:-0.278168 39:-0.163186 40:-0.419613 41:-0.278168 42:0.185619 43:0.55619 44:0.56418 45:0.369468 46:0.49536 47:0.613511 48:0.684772 49:0.301823 50:-0.515531 51:-0.46723 52:0.0341411 53:0.420245 54:-0.0141594 55:-0.53168 56:-0.714439 57:-0.475304 58:-0.414774 59:-0.646331 60:-0.919478 61:-0.739161 
0.0029808726504456 1:-0.694581 2:0.449455 3:-0.64182 4:-0.334927 5:-0.863637 6:0.558477 7:-0.635416 8:-1 9:-0.647221 10:-0.694446 11:-1 12:-1 13:-0.48611 14:-1 15:-1 16:-1 17:-1 18:-1 19:-1 20:-1 21:-1 22:-1 23:-1 24:-1 28:-1 30:-0.527592 31:-0.460169 32:-0.355803 33:-0.460169 34:-0.450226 35:-0.355803 36:-0.527592 37:-0.460169 38:-0.355803 39:-0.460169 40:-0.450226 41:-0.355803 42:-0.256338 43:-0.230126 44:-0.101198 45:-0.173677 46:-0.00414351 47:-1 48:-0.184306 49:-1 50:-0.85639 51:-1 52:-0.287489 53:-0.0968757 54:-0.200058 55:0.0355264 56:-0.288169 57:-1 58:-0.43871 59:-1 60:-0.696212 61:-1 
1.598383470707618 1:-0.251232 2:-0.133666 3:-0.724459 4:-0.60187 5:-0.929619 6:0.610966 7:-0.435485 8:-0.950107 9:-1 10:-1 11:-1 12:-0.824373 13:-1 14:-0.929619 15:-1 16:-1 17:-1 18:-1 19:-1 20:-1 21:-1 22:-1 23:-1 24:-1 28:-1 30:-0.453858 31:0.0686642 32:0.421522 33:0.0686642 34:-0.393134 35:0.421522 36:-0.453858 37:0.0686642 38:0.421522 39:0.0686642 40:-0.393134 41:0.421522 42:-0.610922 43:-0.695194 44:-0.628238 45:-0.652729 46:-0.433573 47:-0.63643 48:-0.829403 49:-0.0647504 50:0.181142 51:-1 52:-0.315475 53:-0.0574393 54:-0.210546 55:-0.0832885 56:-0.373443 57:-0.373143 58:-0.468654 59:0.182048 60:0.295838 61:-1 
0.932262947081174 1:-0.842365 2:0.501552 3:-0.679686 4:-0.543925 5:-1 6:0.658424 7:-0.575758 8:-1 9:-1 10:-0.555557 11:-1 12:-0.505051 13:-1 14:-1 15:-1 16:-1 17:-1 18:-1 19:-1 20:-1 21:-1 22:-1 23:-1 24:-1 28:-1 30:-0.499924 31:0.0704249 32:0.16068 33:0.0704249 34:-0.780419 35:0.16068 36:-0.499924 37:0.0704249 38:0.16068 39:0.0704249 40:-0.780419 41:0.16068 42:-0.325968 43:-0.467221 44:-0.371878 45:-0.386899 46:-0.417998 47:-0.456354 48:-0.712365 49:-1 50:-0.812986 51:-1 52:-0.505104 53:-0.599858 54:-0.354109 55:-0.220317 56:-0.678067 57:-0.99394 58:-0.963272 59:-1 60:-0.899277 61:-1 
1.668673244300062 1:-0.596059 2:-0.285141 3:-0.811325 4:-0.8828 5:-1 6:0.787457 7:-0.698276 8:-0.84 9:-1 10:-1 11:-1 12:-1 13:-1 14:-1 15:-1 16:-1 17:-1 18:-1 19:-1 20:-1 21:-1 22:-1 23:-1 24:-1 28:-1 30:-0.781246 31:-0.126532 32:0.0410361 33:-0.126532 34:-0.587566 35:0.0410361 36:-0.781246 37:-0.126532 38:0.0410361 39:-0.126532 40:-0.587566 41:0.0410361 42:-0.641704 43:-0.497798 44:-0.287915 45:-0.587357 46:-0.39009 47:-0.524069 48:-0.716809 49:-0.601946 50:-0.597984 51:-0.833333 52:-0.341027 53:-0.216866 54:-0.390278 55:-0.206424 56:-0.509656 57:-0.0939108 58:-0.0796279 59:0.174755 60:-0.795762 61:-0.934198 
1.062243699341833 1:-0.270936 2:-0.16566 3:-0.607542 4:-0.328545 5:-0.712288 6:0.578292 7:-0.846154 8:-0.949011 9:-0.90696 10:-0.516485 11:-0.0842483 12:-0.820513 13:-0.864469 14:-1 15:-1 16:-1 17:-1 18:-1 19:-1 20:-1 21:-1 22:-1 23:-1 24:-1 28:-1 30:-0.310727 31:-0.491847 32:-0.632075 33:-0.491847 34:-0.328175 35:-0.632075 36:-0.310727 37:-0.491847 38:-0.632075 39:-0.491847 40:-0.328175 41:-0.632075 42:-0.145866 43:-0.136638 44:-0.150883 45:-0.097223 46:0.211472 47:-0.1117 48:-0.799354 49:-0.96887 50:0.0950833 51:0.0311982 52:-0.194524 53:-0.0153059 54:-0.0461852 55:-0.0167185 56:-0.307805 57:-0.13933 58:-0.534937 59:-0.939297 60:0.12007 61:0.324183 
0.8409691594899993 1:-0.596059 2:0.553962 3:-0.675496 4:-0.369236 5:-0.887147 6:0.532699 7:-0.456898 8:-0.92 9:-1 10:-0.747127 11:-1 12:-0.718391 13:-1 14:-0.887147 15:-1 16:-1 17:-1 18:-1 19:-1 20:-1 21:-1 22:-1 23:-1 24:-1 28:-1 30:0.0814308 31:-0.0648908 32:-0.198587 33:-0.0648908 34:-0.710029 35:-0.198587 36:0.0814308 37:-0.0648908 38:-0.198587 39:-0.0648908 40:-0.710029 41:-0.198587 42:0.193873 43:-0.320475 44:0.492914 45:0.487865 46:0.54231 47:0.386113 48:-1 49:0.261922 50:-1 51:-1 52:-0.601584 53:-0.76781 54:-0.424995 55:-0.403062 56:-0.460742 57:-0.420501 58:-1 59:-0.474612 60:-1 61:-1 
0.2771612646202047 1:-0.596059 2:0.5059 3:-0.793493 4:-0.716799 5:-0.887147 6:0.532699 7:-0.396551 8:-0.92 9:-0.854023 10:-0.747127 11:-1 12:-1 13:-1 14:-1 15:-1 16:-1 17:-1 18:-1 19:-1 20:-1 21:-1 22:-1 23:-1 24:-1 28:-1 30:0.238864 31:-0.202867 32:-0.267332 33:-0.202867 34:-0.71334 35:-0.267332 36:0.238864 37:-0.202867 38:-0.267332 39:-0.202867 40:-0.71334 41:-0.267332 42:0.237589 43:0.419895 44:0.517064 45:0.358132 46:0.285737 47:-0.162835 48:0.304062 49:-0.907541 50:-0.787875 51:-1 52:-0.599818 53:-0.383726 54:-0.123243 55:-0.601946 56:-0.556278 57:-0.699602 58:-0.602311 59:-0.640335 60:-0.971622 61:-1 
1.163715659710337 1:-0.0640394 2:-0.177671 3:-0.746705 4:-0.771243 5:-0.883117 6:0.552195 7:-0.531249 8:-0.751428 9:-0.773214 10:-1 11:-1 12:-1 13:-1 14:-1 15:-1 16:-1 17:-1 18:-1 19:-1 20:-1 21:-1 22:-1 23:-1 24:-1 28:-1 30:-0.462977 31:-0.0828992 32:0.400896 33:-0.0828992 34:-0.172241 35:0.400896 36:-0.462977 37:-0.0828992 38:0.400896 39:-0.0828992 40:-0.172241 41:0.400896 42:-0.542153 43:-0.330781 44:-0.432654 45:-0.569328 46:-0.386832 47:-0.771631 48:-0.707325 49:-0.301962 50:0.161847 51:0.105502 52:-0.412035 53:-0.266059 54:-0.0966497 55:-0.118425 56:-0.202839 57:-0.262748 58:-0.412857 59:0.2549 60:0.815843 61:0.673181 
1.063775567161998 1:-0.192118 2:-0.173728 3:-0.802284 4:-0.62377 5:-0.867769 6:0.828999 7:-0.858586 8:-1 9:-0.914478 10:-0.703705 11:-1 12:-1 13:-0.875421 14:-1 15:-1 16:-1 17:-1 18:-1 19:-1 20:-1 21:-1 22:-1 23:-1 24:-1 28:-1 30:-0.656808 31:-0.0622148 32:0.155682 33:-0.0622148 34:0.180336 35:0.155682 36:-0.656808 37:-0.0622148 38:0.155682 39:-0.0622148 40:0.180336 41:0.155682 42:-0.269325 43:-0.00404289 44:-0.362975 45:-0.494381 46:-0.299564 47:-0.785616 48:-0.697819 49:-0.773377 50:-0.179343 51:-0.165716 52:0.16666 53:0.389004 54:0.0128211 55:0.0708501 56:-0.26944 57:-0.276879 58:-0.213508 59:-0.227122 60:0.965248 61:0.229239 
1.184593536523104 1:-0.665025 2:0.478434 3:-0.833018 4:-0.770584 5:-0.743316 6:0.545544 7:-0.45098 8:-0.90902 9:-1 10:-0.71242 11:-1 12:-1 13:-1 14:-1 15:-1 16:-1 17:-1 18:-1 19:-1 20:-1 21:-1 22:-1 23:-1 24:-1 28:-1 30:-0.736314 31:-0.315924 32:-0.443455 33:-0.315924 34:-0.152021 35:-0.443455 36:-0.736314 37:-0.315924 38:-0.443455 39:-0.315924 40:-0.152021 41:-0.443455 42:-0.370843 43:-0.629 44:-0.691226 45:-0.620624 46:-0.307857 47:-0.756699 48:-0.698503 49:-0.940842 50:-0.536704 51:-1 52:-0.00658217 53:0.193089 54:0.21817 55:0.33503 56:0.0113071 57:-0.534865 58:-0.727708 59:-0.678771 60:-0.342104 61:-1 
0.4101933915761904 1:-0.605911 2:0.481397 3:-0.728787 4:-0.428393 5:-0.770335 6:0.67189 7:-0.692983 8:-1 9:-1 10:-1 11:-0.707602 12:-0.71345 13:-0.783625 14:-1 15:-1 16:-1 17:-1 18:-1 19:-1 20:-1 21:-1 22:-1 23:-1 24:-1 28:-1 30:0.14306 31:-0.362195 32:-0.429279 33:-0.362195 34:-0.656861 35:-0.429279 36:0.14306 37:-0.362195 38:-0.429279 39:-0.362195 40:-0.656861 41:-0.429279 42:0.214466 43:0.361354 44:0.399629 45:0.361169 46:0.358074 47:0.195459 48:-0.739266 49:-0.789917 50:-0.649061 51:-1 52:-0.478027 53:-0.228339 54:-0.114788 55:-0.221315 56:-0.532836 57:-0.734955 58:-0.794146 59:-0.886144 60:-0.59073 61:-1 
0.1320507137073115 1:-0.625616 2:0.502238 3:-0.760399 4:-0.702309 5:-1 6:0.504908 7:-0.300001 8:-0.915636 9:-1 10:-0.466669 11:-1 12:-1 13:-1 14:-1 15:-1 16:-1 17:-1 18:-1 19:-1 20:-1 21:-1 22:-1 23:-1 24:-1 28:-1 30:0.174754 31:-0.370827 32:-0.385436 33:-0.370827 34:-0.622887 35:-0.385436 36:0.174754 37:-0.370827 38:-0.385436 39:-0.370827 40:-0.622887 41:-0.385436 42:0.229118 43:0.397776 44:0.466381 45:0.394151 46:0.153258 47:0.360565 48:0.290502 49:-0.89122 50:-0.795356 51:-1 52:-0.446978 53:-0.257993 54:-0.0731487 55:-0.262638 56:-0.662625 57:-0.696491 58:-0.774811 59:-0.719947 60:-0.98436 61:-1 
0.9161515253873924 1:-0.251232 2:-0.126334 3:-0.759079 4:-0.578886 5:-0.929619 6:0.769848 7:-0.849462 8:-0.850322 9:-0.90896 10:-0.842294 11:-0.820788 12:-1 13:-0.867383 14:-1 15:-1 16:-1 17:-1 18:-1 19:-1 20:-1 21:-1 22:-1 23:-1 24:-1 28:-1 30:0.0753893 31:0.0891731 32:0.0262843 33:0.0891731 34:-0.659838 35:0.0262843 36:0.0753893 37:0.0891731 38:0.0262843 39:0.0891731 40:-0.659838 41:0.0262843 42:0.0635761 43:0.209276 44:0.662272 45:0.798445 46:0.802513 47:0.56728 48:0.246654 49:-0.407571 50:-0.999311 51:-1 52:-0.538015 53:-0.0466832 54:-0.0707014 55:-0.20097 56:-0.542024 57:-0.412919 58:-0.379938 59:-0.21012 60:-0.981242 61:-1 
0.5114878318951196 1:-0.64532 2:0.483805 3:-0.90588 4:-0.889112 5:-0.629503 6:0.564286 7:-0.4717 8:-0.912453 9:-1 10:-1 11:-1 12:-1 13:-1 14:-1 15:-1 16:-1 17:-1 18:-1 19:-1 20:-1 21:-1 22:-1 23:-1 24:-1 28:-1 30:-0.748054 31:-0.180732 32:0.141113 33:-0.180732 34:-0.0878747 35:0.141113 36:-0.748054 37:-0.180732 38:0.141113 39:-0.180732 40:-0.0878747 41:0.141113 42:-0.653597 43:-0.503488 44:-0.673761 45:-0.717438 46:-0.451296 47:-0.671201 48:-0.776616 49:-0.857626 50:-0.992519 51:-0.736493 52:0.0621295 53:0.223672 54:0.283959 55:0.389936 56:0.118851 57:-0.242577 58:-0.898519 59:-0.606854 60:-0.703195 61:-0.332228 
1.646695341956679 1:-0.586207 2:0.36048 3:-0.893094 4:-0.900609 5:-0.556241 6:0.720222 7:-0.762712 8:-0.921356 9:-1 10:-1 11:-1 12:-1 13:-1 14:-1 15:-1 16:-1 17:-1 18:-1 19:-1 20:-1 21:-1 22:-1 23:-1 24:-1 28:-1 30:-0.590724 31:0.0418994 32:0.327043 33:0.0418994 34:-0.477156 35:0.327043 36:-0.590724 37:0.0418994 38:0.327043 39:0.0418994 40:-0.477156 41:0.327043 42:-0.614673 43:-0.603099 44:-0.599454 45:-0.65568 46:-0.654349 47:-0.55388 48:-0.783153 49:-0.705508 50:-0.422521 51:-0.723238 52:-0.406362 53:-0.372887 54:-0.351004 55:-0.0303746 56:-0.387248 57:-0.512557 58:-0.651878 59:-0.741388 60:0.211563 61:-0.00291758 
0.115830749238579 1:-0.812808 2:0.49944 3:-0.791831 4:-0.661934 5:-0.818182 6:0.573137 7:-0.416666 8:-1 9:-1 10:-1 11:-0.537037 12:-1 13:-1 14:-1 15:-1 16:-1 17:-1 18:-1 19:-1 20:-1 21:-1 22:-1 23:-1 24:-1 28:-1 30:-0.614922 31:0.0522095 32:0.267035 33:0.0522095 34:-0.743049 35:0.267035 36:-0.614922 37:0.0522095 38:0.267035 39:0.0522095 40:-0.743049 41:0.267035 42:-0.97946 43:-0.89957 44:-0.499629 45:-0.404207 46:-0.496532 47:-0.894382 48:-1 49:-0.791915 50:-0.656915 51:-1 52:-0.765687 53:-0.555206 54:-0.528629 55:-0.558129 56:-0.400797 57:-0.547235 58:-1 59:-0.886282 60:-0.191548 61:-1 
0.1444409134492099 1:0.142857 2:-0.471276 3:-0.474777 4:-0.205814 5:-1 6:0.597826 7:-0.789474 8:-0.860451 9:-0.809022 10:-0.779449 11:-0.373433 12:-1 13:-0.721804 14:-0.852358 15:-1 16:-1 17:-1 18:-1 19:-1 20:-1 21:-1 22:-1 23:-1 24:-1 28:-1 30:0.151174 31:-0.119991 32:-0.0777248 33:-0.119991 34:-0.437534 35:-0.0777248 36:0.151174 37:-0.119991 38:-0.0777248 39:-0.119991 40:-0.437534 41:-0.0777248 42:0.321276 43:0.537674 44:0.586561 45:0.426551 46:0.639763 47:0.451073 48:0.418503 49:-0.478402 50:-0.392032 51:-0.314741 52:-0.188758 53:-0.0247814 54:0.013581 55:0.273184 56:-0.0035369 57:0.264963 58:-0.281081 59:-0.534427 60:-0.613763 61:-0.65966 
0.5690723873025572 1:-0.576355 2:0.607304 3:-0.721914 4:-0.322092 5:-0.672728 6:0.620045 7:-0.708334 8:-0.922666 9:-1 10:-0.755556 11:-1 12:-1 13:-0.794444 14:-1 15:-1 16:-0.658333 17:-1 18:-1 19:-1 20:-1 21:-1 22:-1 23:-1 24:-1 28:-1 30:0.0433289 31:-0.2574 32:-0.280999 33:-0.2574 34:-0.627821 35:-0.280999 36:0.0433289 37:-0.2574 38:-0.280999 39:-0.2574 40:-0.627821 41:-0.280999 42:0.16831 43:0.586893 44:0.592748 45:0.593321 46:0.407369 47:-1 48:0.265185 49:-0.409285 50:-0.566794 51:-1 52:-0.405465 53:-0.34585 54:0.0344885 55:-0.17773 56:-0.722408 57:-1 58:-0.610641 59:-0.726851 60:-0.785471 61:-1 
0.680978111039178 1:-0.763547 2:0.563611 3:-0.631808 4:-0.111626 5:-0.840355 6:0.681825 7:-0.829268 8:-0.886829 9:-1 10:-1 11:-0.593497 12:-1 13:-1 14:-1 15:-0.252034 16:-1 17:-1 18:-1 19:-1 20:-1 21:-1 22:-1 23:-1 24:-1 28:-1 30:-0.14311 31:0.311982 32:0.0600273 33:0.311982 34:-0.680389 35:0.0600273 36:-0.14311 37:0.311982 38:0.0600273 39:0.311982 40:-0.680389 41:0.0600273 42:-0.602516 43:0.153188 44:0.108661 45:-1 46:0.124812 47:0.161945 48:-1 49:0.289456 50:-0.47138 51:-1 52:-0.580231 53:-0.351212 54:-0.381446 55:-1 56:-0.221925 57:-0.450503 58:-1 59:-0.836135 60:-0.88977 61:-1 
0.07987293726617256 1:-0.231527 2:-0.777736 3:0.43945 4:0.0786004 5:-0.931101 6:-0.868669 7:0.178946 8:-0.071999 9:0.604216 10:-0.691229 11:-0.649123 12:-0.140351 13:-0.740351 14:-0.862201 15:-1 16:-1 17:-0.35579 18:-1 19:-1 20:-1 21:-1 22:-1 23:-1 24:-1 28:-1 30:-0.402206 31:-0.157928 32:0.229875 33:-0.157928 34:-0.0780869 35:0.229875 36:-0.402206 37:-0.157928 38:0.229875 39:-0.157928 40:-0.0780869 41:0.229875 42:-0.162127 43:0.0235021 44:-0.207451 45:-0.147218 46:-0.528237 47:-0.509044 48:-0.54894 49:-0.89075 50:-1 51:-1 52:-0.0333512 53:0.144176 54:-0.00152746 55:-0.128268 56:0.346017 57:0.574695 58:0.482196 59:-0.613886 60:-1 61:-1 
0.3365981752791094 1:-0.221675 2:-0.770819 3:0.414334 4:0.106841 5:-1 6:-0.804788 7:0.130209 8:-0.0333338 9:0.675701 10:-0.847222 11:-0.652778 12:-0.489583 13:-0.743056 14:-0.863637 15:-1 16:-0.786458 17:-0.3625 18:-1 19:-1 20:-1 21:-1 22:-1 23:-1 24:-1 28:-1 30:-0.165295 31:-0.260058 32:0.184084 33:-0.260058 34:-0.130941 35:0.184084 36:-0.165295 37:-0.260058 38:0.184084 39:-0.260058 40:-0.130941 41:0.184084 42:-0.105625 43:0.154728 44:-0.181652 45:0.127194 46:-0.0130793 47:-0.224226 48:-0.108513 49:-0.276596 50:-0.493074 51:-1 52:-0.343897 53:-0.3225 54:-0.579431 55:-0.0710912 56:0.0226083 57:0.275438 58:0.659309 59:0.6704 60:-0.255368 61:-1 
0.446121482826561 1:0.044335 2:-0.772125 3:0.470112 4:-0.0148219 5:-0.89357 6:-1 7:0.280488 8:-0.0191864 9:0.583202 10:-0.0460723 11:-0.322493 12:-0.867209 13:-0.699187 14:-1 15:-0.626018 16:-1 17:-0.50244 18:-1 19:-1 20:-1 21:-1 22:-1 23:-1 24:-1 28:-1 30:-0.213946 31:-0.272753 32:-0.581461 33:-0.272753 34:0.165062 35:-0.581461 36:-0.213946 37:-0.272753 38:-0.581461 39:-0.272753 40:0.165062 41:-0.581461 42:-0.0399792 43:-0.289395 44:0.118767 45:-0.168899 46:-0.50364 47:-0.420713 48:-0.419738 49:-0.730554 50:-0.665526 51:-0.633863 52:0.136358 53:0.0916872 54:0.0882772 55:0.741237 56:0.552724 57:0.811425 58:0.92054 59:0.0857395 60:-0.601228 61:-0.441306 
0.1246295057376687 1:-0.339901 2:-0.46077 3:-0.0637723 4:0.0708032 5:-1 6:-0.314766 7:0.541665 8:-0.779048 9:-0.697618 10:-0.650795 11:-0.603175 12:-0.805555 13:-1 14:-1 15:-0.452382 16:-1 17:-0.514286 18:-1 19:-1 20:-1 21:-1 22:-1 23:-1 24:-1 28:-1 30:-0.576553 31:0.485524 32:-0.432913 33:0.485524 34:0.0833537 35:-0.432913 36:-0.576553 37:0.485524 38:-0.432913 39:0.485524 40:0.0833537 41:-0.432913 42:-0.349201 43:-0.313629 44:-0.3078 45:-0.13478 46:-0.287765 47:-0.168654 48:-0.081403 49:-0.47778 50:-0.765989 51:-1 52:0.373546 53:0.479773 54:0.492972 55:0.366619 56:-0.202405 57:0.0276987 58:0.133977 59:-0.411464 60:-0.776638 61:-1 
0.3895880812377827 1:-0.408867 2:0.0905806 3:-0.534437 4:-0.210984 5:-1 6:0.603597 7:-0.636364 8:-0.93974 9:-0.780086 10:-1 11:-0.78355 12:-1 13:-0.839827 14:-0.744983 15:-1 16:-1 17:-1 18:-1 19:-1 20:-1 21:-1 22:-1 23:-1 24:-1 28:-1 30:-0.601582 31:0.46748 32:-0.416516 33:0.46748 34:0.20265 35:-0.416516 36:-0.601582 37:0.46748 38:-0.416516 39:0.46748 40:0.20265 41:-0.416516 42:-0.541201 43:-0.365353 44:-0.259608 45:-0.154586 46:-1 47:-0.195965 48:-0.449861 49:-0.169611 50:-0.618242 51:-1 52:0.379889 53:0.479888 54:0.495779 55:0.115857 56:-1 57:0.157108 58:-0.145349 59:0.28174 60:-0.882868 61:-1 
0.5941551895019523 1:-0.793103 2:0.698071 3:-0.483906 4:-0.165356 5:-1 6:0.37563 7:-0.447368 8:-0.755789 9:-1 10:-0.228072 11:-1 12:-0.570175 13:-1 14:-1 15:-0.596492 16:-1 17:-1 18:-1 19:-1 20:-1 21:-1 22:-1 23:-1 24:-1 28:-1 30:-0.295 31:0.180952 32:-0.466062 33:0.180952 34:-0.808206 35:-0.466062 36:-0.295 37:0.180952 38:-0.466062 39:0.180952 40:-0.808206 41:-0.466062 42:-0.496951 43:-0.449801 44:-0.596225 45:-0.0969543 46:-0.0195174 47:0.103324 48:0.35769 49:-0.680428 50:-1 51:-1 52:-0.52956 53:-0.482544 54:-0.451697 55:-0.65918 56:-0.689999 57:-0.667767 58:-0.623095 59:-0.377526 60:-1 61:-1 
0.07575654759439315 1:-0.940887 2:0.56055 3:-0.594645 4:-0.50846 5:-1 6:0.308004 7:-0.391305 8:-0.79826 9:-0.263767 10:-0.36232 11:-1 12:-1 13:-1 14:-1 15:-1 16:-1 17:-1 18:-1 19:-1 20:-1 21:-1 22:-1 23:-1 24:-1 28:-1 30:-0.680495 31:0.0299954 32:0.036831 33:0.0299954 34:-0.888411 35:0.036831 36:-0.680495 37:0.0299954 38:0.036831 39:0.0299954 40:-0.888411 41:0.036831 42:-1 43:-0.522614 44:-0.248026 45:-1 46:-0.567987 47:-0.554158 48:-1 49:-0.463885 50:-1 51:-1 52:-1 53:-0.891353 54:-0.474059 55:-1 56:-0.564429 57:-0.651947 58:-1 59:-0.774907 60:-1 61:-1 
0.3539713111170057 1:-0.389163 2:0.058306 3:-0.325685 4:0.108683 5:-1 6:0.561261 7:-0.822785 8:-0.823797 9:-0.67848 10:-1 11:-0.78903 12:-1 13:-0.843882 14:-0.751439 15:-0.611814 16:-1 17:-0.741773 18:-1 19:-1 20:-1 21:-1 22:-1 23:-1 24:-1 28:-1 30:-0.736583 31:-0.259236 32:-0.407656 33:-0.259236 34:0.328059 35:-0.407656 36:-0.736583 37:-0.259236 38:-0.407656 39:-0.259236 40:0.328059 41:-0.407656 42:-0.55106 43:-0.479356 44:-0.507573 45:-0.497619 46:-0.535642 47:-0.825704 48:-0.683741 49:-0.839252 50:-0.710693 51:-0.862823 52:0.395508 53:0.47675 54:0.487285 55:0.711815 56:-0.450014 57:0.378193 58:0.450884 59:0.412566 60:-0.592235 61:-0.785689 
0.7072977653721879 1:-0.536946 2:-0.245662 3:-0.0923088 4:0.191966 5:-0.897727 6:0.184679 7:-0.398438 8:-0.855 9:-0.867708 10:-0.770834 11:-0.21875 12:-0.744792 13:-0.807291 14:-1 15:0.197915 16:-1 17:-1 18:-1 19:-1 20:-1 21:-1 22:-1 23:-1 24:-1 28:-1 30:-0.501361 31:-0.367465 32:-0.393232 33:-0.367465 34:-0.426737 35:-0.393232 36:-0.501361 37:-0.367465 38:-0.393232 39:-0.367465 40:-0.426737 41:-0.393232 42:-0.123888 43:-0.309176 44:-0.126544 45:-0.338213 46:-0.129777 47:-0.581328 48:-0.610228 49:-0.414875 50:-0.714915 51:-1 52:-0.298101 53:-0.566265 54:-0.149048 55:-0.200061 56:0.12651 57:0.0437985 58:-0.0711704 59:0.238906 60:-0.457246 61:-1 
0.8270760808791119 1:-0.921182 2:0.541543 3:-0.388171 4:-0.185402 5:-1 6:0.366741 7:-0.72 8:-0.8144 9:-0.661333 10:-0.413335 11:1 12:-1 13:-1 14:-1 15:-1 16:-1 17:-1 18:-1 19:-1 20:-1 21:-1 22:-1 23:-1 24:-1 28:-1 30:-0.767861 31:-0.0825893 32:0.06477 33:-0.0825893 34:-0.817313 35:0.06477 36:-0.767861 37:-0.0825893 38:0.06477 39:-0.0825893 40:-0.817313 41:0.06477 42:-0.895731 43:-0.524504 44:-0.486852 45:-1 46:-0.594177 47:-0.840841 48:-1 49:-0.863876 50:-1 51:-1 52:-0.936983 53:-0.736294 54:-0.529909 55:-1 56:-0.46109 57:-0.445441 58:-1 59:-0.340516 60:-1 61:-1 
0.428771912008224 1:-0.330049 2:-0.46488 3:-0.0444554 4:0.161493 5:-0.922995 6:-0.249135 7:0.399999 8:-0.836235 9:-0.601568 10:-0.654903 11:-1 12:-0.615687 13:-1 14:-0.84599 15:-1 16:-0.517647 17:-0.76 18:-1 19:-0.568628 20:-1 21:-1 22:-1 23:-1 24:-1 28:-1 30:-0.497284 31:0.526502 32:0.134163 33:0.526502 34:0.0457914 35:0.134163 36:-0.497284 37:0.526502 38:0.134163 39:0.526502 40:0.0457914 41:0.134163 42:-0.326487 43:-0.19986 44:-0.384869 45:-0.220693 46:-0.215526 47:-0.120273 48:0.167954 49:-0.288704 50:-0.778831 51:-0.860697 52:0.304119 53:0.370841 54:0.411595 55:0.599417 56:-0.33434 57:-0.0313143 58:0.0243511 59:-0.00921928 60:-0.687629 61:-0.955659 
0.6306935772225718 1:-0.487685 2:-0.347209 3:-0.0343332 4:0.359155 5:-1 6:-0.212064 7:0.420288 8:-0.932753 9:-0.631883 10:-0.36232 11:-1 12:-1 13:-0.821255 14:-0.810277 15:-0.777777 16:-1 17:-1 18:-1 19:-1 20:-1 21:-0.27536 22:-0.0579671 23:-1 24:-1 28:-1 30:-0.795213 31:-0.11342 32:-0.394912 33:-0.11342 34:-0.102006 35:-0.394912 36:-0.795213 37:-0.11342 38:-0.394912 39:-0.11342 40:-0.102006 41:-0.394912 42:-0.590742 43:-0.562844 44:-0.463053 45:-0.617982 46:-0.820039 47:-0.521988 48:-0.467562 49:-0.901454 50:-0.624093 51:-1 52:0.1466 53:0.403638 54:0.330089 55:0.507844 56:-0.680929 57:0.325212 58:0.178313 59:-0.496914 60:-0.550208 61:-1 
0.1961128493137417 1:-0.714286 2:0.318309 3:-0.441465 4:0.130606 5:-1 6:0.629223 7:-0.771739 8:-0.89913 9:-0.815942 10:-1 11:-0.637682 12:-1 13:-0.731884 14:-0.857708 15:-1 16:-1 17:-1 18:-1 19:-0.2029 20:-1 21:-1 22:-1 23:-1 24:-1 28:-1 30:-0.683196 31:-0.462206 32:-0.336224 33:-0.462206 34:-0.33871 35:-0.336224 36:-0.683196 37:-0.462206 38:-0.336224 39:-0.462206 40:-0.33871 41:-0.336224 42:-0.304721 43:-0.247167 44:-0.364774 45:-0.701166 46:-0.397026 47:-0.632828 48:-0.453186 49:-0.934442 50:-0.866898 51:-1 52:-0.253515 53:-0.0182036 54:-0.442841 55:-0.312106 56:-0.00753017 57:-0.0119835 58:0.230518 59:-0.662822 60:-0.861 61:-1 
0.4586210031987211 1:-0.103448 2:-0.775234 3:0.109912 4:-0.338119 5:-0.939394 6:-0.77547 7:0.101852 8:0.074073 9:0.959876 10:-0.864198 11:-0.691358 12:-0.697531 13:-0.771605 14:-0.939394 15:-1 16:-1 17:-1 18:-1 19:-1 20:-1 21:-1 22:-1 23:-1 24:-1 28:-1 30:-0.132414 31:-0.301001 32:0.273424 33:-0.301001 34:-0.11167 35:0.273424 36:-0.132414 37:-0.301001 38:0.273424 39:-0.301001 40:-0.11167 41:0.273424 42:-0.0020362 43:0.312759 44:-0.198526 45:-0.28101 46:-0.337633 47:-0.544248 48:-0.491386 49:-0.366978 50:-1 51:-1 52:-0.0284604 53:-0.270361 54:-0.0992893 55:0.697607 56:0.144469 57:0.585618 58:0.4323 59:0.323361 60:-1 61:-1 
0.08945979009238185 1:-0.408867 2:0.0680461 3:-0.479655 4:-0.215474 5:-1 6:0.631011 7:-0.818182 8:-0.93974 9:-0.890043 10:-0.428574 11:-0.5671 12:-0.787879 13:-0.679654 14:-0.914994 15:-1 16:-1 17:-1 18:-1 19:-1 20:-1 21:-1 22:-1 23:-1 24:-1 28:-1 30:-0.328953 31:0.596842 32:0.0412294 33:0.596842 34:-0.19979 35:0.0412294 36:-0.328953 37:0.596842 38:0.0412294 39:0.596842 40:-0.19979 41:0.0412294 42:-0.137562 43:-0.0360256 44:-0.455829 45:-0.112013 46:0.109201 47:0.0692986 48:0.168628 49:0.155337 50:-0.666023 51:-1 52:0.0947389 53:0.214296 54:-0.18563 55:0.353821 56:-0.134104 57:-0.237879 58:-0.238375 59:-0.125307 60:-0.647333 61:-1 
0.1354296713739892 1:-0.0246305 2:-0.544689 3:0.0248845 4:-0.00568851 5:-1 6:-0.377157 7:0.387931 8:-0.520001 9:-0.854023 10:-0.241382 11:-0.425287 12:-0.859195 13:-0.893678 14:-0.887147 15:-1 16:-0.293103 17:-1 18:-1 19:-1 20:-1 21:-1 22:-1 23:-1 24:-1 28:-1 30:-0.328875 31:0.168372 32:-0.516769 33:0.168372 34:0.338567 35:-0.516769 36:-0.328875 37:0.168372 38:-0.516769 39:0.168372 40:0.338567 41:-0.516769 42:-0.164519 43:-0.212928 44:0.0948801 45:-0.156313 46:-0.0640016 47:0.124371 48:0.16558 49:-0.510224 50:-1 51:-0.939146 52:0.540776 53:0.50963 54:0.471587 55:0.50798 56:0.27134 57:0.446614 58:0.517665 59:-0.222848 60:-1 61:-0.786792 
0.304782443917257 1:-0.408867 2:0.0623308 3:-0.151102 4:0.226998 5:-1 6:0.439114 7:-0.863637 8:-0.758961 9:-0.450215 10:-1 11:-0.78355 12:-1 13:-0.679654 14:-0.574971 15:-0.800866 16:-1 17:-0.735065 18:-1 19:-1 20:-1 21:-1 22:-1 23:-1 24:-1 28:-1 30:-0.367685 31:0.540824 32:0.0152175 33:0.540824 34:-0.265153 35:0.0152175 36:-0.367685 37:0.540824 38:0.0152175 39:0.540824 40:-0.265153 41:0.0152175 42:-0.103874 43:-0.0153545 44:-0.0611268 45:0.0758245 46:-0.968044 47:0.153784 48:-0.0439107 49:0.120515 50:-0.767254 51:-1 52:0.0977142 53:0.161793 54:0.179182 55:-0.183987 56:-0.569733 57:-0.259069 58:-0.273228 59:-0.116005 60:-0.850485 61:-1 
0.2339298218259155 1:-0.044335 2:-0.522429 3:-0.3079 4:-0.383604 5:-0.827751 6:-0.309476 7:0.442982 8:-0.592982 9:-0.554385 10:-0.614036 11:-0.853801 12:-1 13:-0.783625 14:-1 15:-0.865497 16:-1 17:-1 18:-1 19:-1 20:-1 21:-1 22:-1 23:-1 24:-1 28:-1 30:-0.511686 31:-0.032851 32:0.298775 33:-0.032851 34:-0.178869 35:0.298775 36:-0.511686 37:-0.032851 38:0.298775 39:-0.032851 40:-0.178869 41:0.298775 42:-0.271387 43:-0.336526 44:-0.370911 45:-0.134437 46:-0.156355 47:-0.127106 48:-0.0380086 49:-0.817481 50:-1 51:-1 52:0.157042 53:0.23299 54:0.316622 55:0.375735 56:0.0141461 57:-0.827499 58:-0.643871 59:-0.730268 60:-1 61:-1 
0.1300013644699478 1:-0.270936 2:-0.229834 3:-0.124069 4:0.152003 5:-1 6:0.230348 7:-0.423078 8:-0.745054 9:-0.813919 10:-1 11:-0.6337 12:-0.820513 13:-0.593407 14:-0.856144 15:-0.15751 16:-1 17:-1 18:-1 19:-1 20:-1 21:-1 22:-1 23:-1 24:-1 28:-1 30:-0.139792 31:0.507864 32:-0.00610472 33:0.507864 34:-0.399251 35:-0.00610472 36:-0.139792 37:0.507864 38:-0.00610472 39:0.507864 40:-0.399251 41:-0.00610472 42:0.0564494 43:0.164714 44:0.189915 45:0.0498491 46:0.239956 47:0.383944 48:0.292189 49:-0.587571 50:-0.635459 51:-1 52:-0.0652685 53:0.0235885 54:0.00898477 55:-0.108282 56:-0.412638 57:-0.448744 58:-0.36372 59:-0.674414 60:-0.451088 61:-1 
0.0917247283327878 1:-0.231527 2:-0.768698 3:0.414662 4:0.0764428 5:-1 6:-0.80201 7:0.215787 8:-0.218526 9:0.782457 10:-0.845615 11:-0.473685 12:-0.82807 13:-0.610527 14:-0.931101 15:-0.677194 16:-0.784211 17:-0.570527 18:-1 19:-1 20:-1 21:-1 22:-1 23:-1 24:-1 28:-1 30:-0.164967 31:-0.273321 32:0.197162 33:-0.273321 34:-0.095181 35:0.197162 36:-0.164967 37:-0.273321 38:0.197162 39:-0.273321 40:-0.095181 41:0.197162 42:-0.0267971 43:0.151726 44:-0.193804 45:-0.093604 46:-0.0976137 47:0.0785238 48:-0.20347 49:-0.208292 50:-0.691147 51:-1 52:-0.25819 53:-0.0873941 54:-0.60553 55:-0.101588 56:0.0200079 57:0.302665 58:0.614279 59:0.716126 60:-0.58812 61:-1 
0.4404109431040837 1:-0.783251 2:0.550038 3:-0.409915 4:0.0298011 5:-1 6:0.555095 7:-0.641026 8:-1 9:-1 10:-0.623933 11:-1 12:-1 13:-0.0512808 14:-1 15:-0.606839 16:-1 17:-1 18:-1 19:-1 20:-1 21:-1 22:-1 23:-1 24:-1 28:-1 30:-0.171187 31:0.289202 32:-0.0296693 33:0.289202 34:-0.736571 35:-0.0296693 36:-0.171187 37:0.289202 38:-0.0296693 39:0.289202 40:-0.736571 41:-0.0296693 42:0.0867486 43:0.134154 44:0.133314 45:-1 46:0.148715 47:0.00648225 48:-1 49:-0.735035 50:-0.72513 51:-1 52:-0.558516 53:-0.449433 54:-0.37714 55:-1 56:-0.767346 57:-0.694944 58:-1 59:-0.948324 60:-0.865297 61:-1 
0.9115919971885087 1:-0.694581 2:0.560358 3:-0.164376 4:0.101135 5:-1 6:0.382573 7:-0.78125 8:-1 9:-0.647221 10:-1 11:0.0416667 12:0.701394 13:-0.743056 14:-0.863637 15:-1 16:-1 17:-1 18:-1 19:-1 20:-1 21:-1 22:-1 23:-1 24:-1 28:-1 30:-0.150363 31:0.231602 32:-0.422906 33:0.231602 34:-0.824763 35:-0.422906 36:-0.150363 37:0.231602 38:-0.422906 39:0.231602 40:-0.824763 41:-0.422906 42:-0.323528 43:-0.233913 44:0.0795036 45:-1 46:0.356767 47:0.468127 48:-1 49:0.49195 50:-0.735285 51:-0.451201 52:-0.592463 53:-0.469411 54:-0.572655 55:-1 56:-0.612538 57:-0.757539 58:-1 59:-0.379689 60:-0.96914 61:-0.911036 
0.09403274033062965 1:-0.448276 2:0.0405805 3:-0.423454 4:-0.0699098 5:-1 6:0.579562 7:-0.808219 8:-0.936438 9:-0.768036 10:-0.196349 11:-1 12:-0.328767 13:-1 14:-0.910337 15:-1 16:-1 17:-0.720549 18:-1 19:-1 20:-1 21:-1 22:-1 23:-1 24:-1 28:-1 30:-0.346842 31:0.576688 32:0.0180686 33:0.576688 34:-0.216103 35:0.0180686 36:-0.346842 37:0.576688 38:0.0180686 39:0.576688 40:-0.216103 41:0.0180686 42:-0.0997625 43:-0.0718229 44:-0.0731184 45:0.147079 46:-0.567817 47:0.137098 48:0.153484 49:0.0470662 50:-0.826051 51:-1 52:0.0589079 53:0.168878 54:0.23122 55:0.0254673 56:-0.903251 57:-0.237379 58:-0.236775 59:-0.341939 60:-0.925534 61:-1 
0.246911925881644 1:-0.399015 2:-0.355439 3:-0.255766 4:0.0485205 5:-1 6:-0.0402777 7:0.211538 8:-0.881026 9:-0.457264 10:-0.4359 11:-1 12:-1 13:-0.84188 14:-1 15:-0.803419 16:-1 17:-1 18:-1 19:-1 20:-1 21:-1 22:-1 23:-0.282052 24:-1 28:-1 30:-0.750744 31:0.078721 32:0.0839711 33:0.078721 34:0.118167 35:0.0839711 36:-0.750744 37:0.078721 38:0.0839711 39:0.078721 40:0.118167 41:0.0839711 42:-0.542742 43:-0.664045 44:-0.456511 45:-0.645173 46:-0.56755 47:-0.273992 48:-0.318972 49:-0.605422 50:-0.789814 51:-1 52:0.170864 53:0.448459 54:0.456876 55:0.63426 56:-0.201468 57:0.1116 58:0.0572582 59:-0.462561 60:-0.510414 61:-1 
1.839317956493499 1:-0.142857 2:-0.500828 3:-0.801978 4:-0.723176 5:-1 6:0.818953 7:-0.831731 8:-0.910769 9:-0.755768 10:-1 11:-0.839744 12:-1 13:-1 14:-1 15:-1 16:-1 17:-1 18:-1 19:-1 20:-1 21:-1 22:-1 23:-1 24:-1 28:-1 30:0.0501137 31:0.0329141 32:-0.197057 33:0.0329141 34:-0.588519 35:-0.197057 36:0.0501137 37:0.0329141 38:-0.197057 39:0.0329141 40:-0.588519 41:-0.197057 42:0.327437 43:0.420294 44:0.477376 45:0.410785 46:0.21411 47:0.236307 48:0.305706 49:-0.0443385 50:0.330073 51:-1 52:-0.173316 53:-0.19659 54:0.174913 55:-0.0474634 56:-0.345296 57:-0.185318 58:-0.322194 59:-0.170035 60:-0.536753 61:-1 
0.2612509210667233 1:-0.320197 2:-0.454215 3:-0.156473 4:-0.044545 5:-1 6:-0.258663 7:0.587207 8:-0.946046 9:-0.704651 10:-0.658916 11:-0.418605 12:-0.810078 13:-1 14:-1 15:-0.465117 16:-1 17:-0.762791 18:-1 19:-1 20:-1 21:-1 22:-1 23:-1 24:-1 28:-1 30:-0.685593 31:0.154244 32:-0.483317 33:0.154244 34:0.407209 35:-0.483317 36:-0.685593 37:0.154244 38:-0.483317 39:0.154244 40:0.407209 41:-0.483317 42:-0.602279 43:-0.603795 44:-0.355302 45:-0.815722 46:-0.667004 47:-0.491322 48:-0.494886 49:-0.598983 50:-0.651072 51:-0.741748 52:0.509977 53:0.596032 54:0.563944 55:0.757818 56:-0.430787 57:0.258701 58:0.446901 59:0.499148 60:-0.755877 61:-0.797396 
0.3717129541954594 1:-0.330049 2:-0.448921 3:-0.0793794 4:0.0524574 5:-1 6:-0.273967 7:0.523528 8:-0.890823 9:-0.601568 10:-0.654903 11:-0.803922 12:-0.807843 13:-1 14:-0.922995 15:-0.639216 16:-0.276471 17:-1 18:-1 19:-1 20:-1 21:-1 22:-1 23:-1 24:-1 28:-1 30:-0.63079 31:0.394688 32:-0.456525 33:0.394688 34:0.305426 35:-0.456525 36:-0.63079 37:0.394688 38:-0.456525 39:0.394688 40:0.305426 41:-0.456525 42:-0.505467 43:-0.40591 44:-0.422422 45:-0.520991 46:-0.545136 47:-0.281301 48:-0.188723 49:-0.568382 50:-0.966236 51:-0.722449 52:0.407233 53:0.473758 54:0.534144 55:0.470915 56:-0.458597 57:0.13675 58:0.583058 59:0.398671 60:-0.947447 61:-0.739372 
0.5474306183657498 1:-0.438424 2:-0.126523 3:-0.230042 4:0.216181 5:-1 6:0.585815 7:-0.810811 8:-0.937297 9:-0.885585 10:-0.801803 11:-1 12:-0.558559 13:-0.833333 14:-0.911548 15:-0.171172 16:-1 17:-0.724325 18:-1 19:-1 20:-1 21:-1 22:-1 23:-1 24:-1 28:-1 30:-0.0375655 31:0.195833 32:-0.11519 33:0.195833 34:-0.690894 35:-0.11519 36:-0.0375655 37:0.195833 38:-0.11519 39:0.195833 40:-0.690894 41:-0.11519 42:0.225513 43:0.428575 44:0.341695 45:0.320164 46:-0.318608 47:0.302838 48:0.400393 49:-1 50:-0.932922 51:-1 52:-0.502305 53:-0.231556 54:-0.135868 55:-0.484953 56:-0.906976 57:-0.645004 58:-0.857345 59:-1 60:-0.977669 61:-1 
1.296790133774971 1:-0.812808 2:0.532426 3:-0.576242 4:-0.00454623 5:-1 6:0.749042 7:-1 8:-0.742222 9:-0.764814 10:-0.592593 11:-1 12:-1 13:-1 14:-1 15:-1 16:-1 17:-1 18:-1 19:0.0185185 20:-1 21:-1 22:-1 23:-1 24:-1 28:-1 30:-0.615772 31:0.0688736 32:-0.00139107 33:0.0688736 34:-0.934613 35:-0.00139107 36:-0.615772 37:0.0688736 38:-0.00139107 39:0.0688736 40:-0.934613 41:-0.00139107 42:-0.791111 43:-0.782531 44:-0.334444 45:-1 46:0.0878529 47:-0.252226 48:-1 49:-0.169332 50:-0.696013 51:-1 52:-0.917103 53:-0.907801 54:-0.690663 55:-1 56:-0.640691 57:-0.684113 58:-1 59:-0.677487 60:-0.921375 61:-1 
0.5547602596683574 1:-0.704433 2:0.526079 3:-0.219826 4:0.134122 5:-1 6:0.368537 7:-0.62766 8:-0.901276 9:-0.819858 10:-1 11:0.06383 12:-0.652482 13:-0.737588 14:-0.72147 15:-0.673759 16:-1 17:-1 18:-1 19:-1 20:-1 21:-1 22:-1 23:-1 24:-1 28:-1 30:0.329087 31:0.120879 32:0.115155 33:0.120879 34:-0.824953 35:0.115155 36:0.329087 37:0.120879 38:0.115155 39:0.120879 40:-0.824953 41:0.115155 42:-0.0783614 43:-0.065242 44:0.540364 45:-1 46:0.557823 47:0.674417 48:-0.747442 49:0.51804 50:-0.761545 51:-1 52:-0.583549 53:-0.539423 54:-0.519056 55:-1 56:-0.582354 57:-0.713475 58:-0.977504 59:-0.946004 60:-0.930809 61:-1 
0.06086046172422242 1:-0.605911 2:-0.274699 3:-0.343495 4:-0.0627711 5:-1 6:0.412661 7:-0.570176 8:-0.837193 9:-0.405847 10:-1 11:-0.415205 12:-0.71345 13:-1 14:-1 15:-1 16:-1 17:-1 18:-1 19:-1 20:-0.228068 21:-1 22:-1 23:-1 24:-1 28:-1 30:-0.48896 31:-0.34677 32:0.0658814 33:-0.34677 34:-0.576878 35:0.0658814 36:-0.48896 37:-0.34677 38:0.0658814 39:-0.34677 40:-0.576878 41:0.0658814 42:-0.0949763 43:-0.151517 44:-0.125604 45:-0.227549 46:-0.452713 47:-0.51792 48:-0.431556 49:-0.852378 50:-0.689692 51:-1 52:-0.147672 53:-0.274702 54:-0.246517 55:-0.36741 56:-0.273255 57:-0.16553 58:0.076479 59:-0.94428 60:-0.510609 61:-1 
0.379492968205711 1:-0.605911 2:-0.250349 3:-0.433753 4:0.0449955 5:-0.770335 6:0.412661 7:-0.570176 8:-0.837193 9:-0.702924 10:-0.228072 11:-1 12:-1 13:-1 14:-1 15:-1 16:-1 17:-1 18:-1 19:-1 20:-1 21:-1 22:-1 23:-0.017542 24:-1 28:-1 30:-0.584068 31:-0.377451 32:-0.396955 33:-0.377451 34:-0.397044 35:-0.396955 36:-0.584068 37:-0.377451 38:-0.396955 39:-0.377451 40:-0.397044 41:-0.396955 42:-0.399688 43:-0.249523 44:-0.23104 45:-0.369568 46:-0.346133 47:-0.63628 48:-0.60891 49:-0.660326 50:-0.754766 51:-1 52:-0.214128 53:-0.121535 54:0.0269312 55:-0.404097 56:-0.147516 57:0.0664359 58:-0.0377059 59:-0.278585 60:-0.468999 61:-1 
0.8820461393288181 1:0.103448 2:-0.827999 3:-0.419913 4:-0.360974 5:-1 6:0.174963 7:-0.158916 8:-0.712248 9:-0.540567 10:-0.658916 11:-1 12:-0.873385 13:-0.808785 14:-1 15:-1 16:-0.841085 17:-1 18:-1 19:-1 20:-1 21:-1 22:-1 23:-1 24:-1 28:-1 30:-0.232134 31:0.316657 32:-0.379547 33:0.316657 34:-0.209761 35:-0.379547 36:-0.232134 37:0.316657 38:-0.379547 39:0.316657 40:-0.209761 41:-0.379547 42:-0.669716 43:-0.684417 44:0.0523474 45:0.193734 46:0.408814 47:0.346382 48:0.540892 49:0.235096 50:0.073823 51:-0.78849 52:-0.487207 53:-0.0154055 54:0.25834 55:0.352879 56:-0.0921816 57:-0.245804 58:-0.134177 59:-0.281842 60:-0.514296 61:-0.836568 
0.03735552743216915 1:-0.921182 2:0.566354 3:-0.678339 4:-0.494364 5:-1 6:0.53561 7:-0.44 8:-1 9:-0.661333 10:-1 11:-0.333333 12:-1 13:-1 14:-1 15:-1 16:-1 17:-1 18:-1 19:-1 20:-1 21:-1 22:-1 23:-1 24:-1 28:-1 30:-0.751365 31:-0.094072 32:0.0701469 33:-0.094072 34:-0.855258 35:0.0701469 36:-0.751365 37:-0.094072 38:0.0701469 39:-0.094072 40:-0.855258 41:0.0701469 42:-0.923165 43:-0.45573 44:-0.438147 45:-1 46:-0.729251 47:-0.570935 48:-1 49:-0.926897 50:-0.722234 51:-1 52:-0.924552 53:-0.613083 54:-0.507179 55:-1 56:-0.449571 57:-0.58484 58:-1 59:-0.683807 60:-0.874592 61:-1 
0.03677199419448549 1:-0.369458 2:0.0521514 3:-0.199002 4:0.166781 5:-1 6:0.494957 7:-0.827161 8:-0.885432 9:-0.790946 10:-0.63786 11:-0.794238 12:-0.798354 13:-0.238682 14:-0.757576 15:-1 16:-1 17:-0.748148 18:-1 19:-1 20:-1 21:-1 22:-1 23:-1 24:-1 28:-1 30:-0.277225 31:0.509128 32:0.0144272 33:0.509128 34:-0.367852 35:0.0144272 36:-0.277225 37:0.509128 38:0.0144272 39:0.509128 40:-0.367852 41:0.0144272 42:0.00556923 43:0.116291 44:-0.221533 45:0.125751 46:0.199828 47:0.258795 48:0.0744587 49:0.21089 50:-0.644544 51:-0.717264 52:-0.0470261 53:0.0196639 54:-0.115125 55:-0.0304829 56:-0.364025 57:-0.357721 58:-0.479883 59:-0.219334 60:-0.74651 61:-0.797716 
0.6702499160557552 1:-0.55665 2:-0.425776 3:-0.424856 4:-0.344542 5:-1 6:0.225108 7:-0.0403217 8:-0.925161 9:-0.863441 10:-0.763442 11:-0.462365 12:-1 13:-0.801075 14:-0.894429 15:-1 16:-1 17:-1 18:-1 19:-1 20:-1 21:-1 22:-1 23:-1 24:-1 28:-1 30:-0.649189 31:-0.0873465 32:0.161195 33:-0.0873465 34:-0.439769 35:0.161195 36:-0.649189 37:-0.0873465 38:0.161195 39:-0.0873465 40:-0.439769 41:0.161195 42:-0.896574 43:-0.486396 44:-0.536554 45:-0.375669 46:-0.482817 47:-0.767554 48:-0.840642 49:-0.523609 50:-0.589332 51:-1 52:-0.0381114 53:0.00255349 54:-0.0271897 55:-0.00734251 56:-0.329563 57:-0.365342 58:-0.433847 59:-0.578703 60:-0.752714 61:-1 
0.9031929718103456 1:-0.970443 2:0.54364 3:-0.456973 4:0.148291 5:-0.672728 6:0.620045 7:-0.825 8:-1 9:-1 10:-1 11:-1 12:-1 13:-1 14:-1 15:0.533331 16:-1 17:-1 18:-1 19:-1 20:-1 21:-1 22:-1 23:-1 24:-1 28:-1 30:-0.665765 31:-0.0652317 32:0.137212 33:-0.0652317 34:-0.942841 35:0.137212 36:-0.665765 37:-0.0652317 38:0.137212 39:-0.0652317 40:-0.942841 41:0.137212 42:-0.924762 43:-0.824849 44:-0.458266 45:-1 46:-0.75395 47:-0.757856 48:-1 49:-0.801313 50:-0.924391 51:-1 52:-0.923061 53:-0.982709 54:-0.716517 55:-1 56:-0.908589 57:-0.645994 58:-1 59:-0.781546 60:-0.743987 61:-1 
0.004402250873968196 1:0.0935961 2:-0.702437 3:-0.347757 4:-0.192454 5:-1 6:0.234154 7:-0.316409 8:-0.71 9:-0.66927 10:-0.656251 11:-0.869792 12:-1 13:-0.710937 14:-0.846591 15:-0.880209 16:-1 17:-1 18:-1 19:-1 20:-1 21:-1 22:-1 23:-1 24:-1 28:-1 30:0.121428 31:0.100132 32:-0.0451389 33:0.100132 34:-0.0658577 35:-0.0451389 36:0.121428 37:0.100132 38:-0.0451389 39:0.100132 40:-0.0658577 41:-0.0451389 42:0.390316 43:0.502225 44:0.490628 45:0.469357 46:0.398667 47:0.58215 48:0.501926 49:-0.325709 50:-0.196812 51:-0.292816 52:0.299546 53:0.412099 54:0.0906953 55:0.225759 56:-0.00859702 57:-0.0357027 58:0.123312 59:-0.933071 60:-0.700836 61:-0.697673 
0.46391328525507 1:-0.812808 2:0.574218 3:-0.434239 4:0.0965272 5:-0.818182 6:0.514501 7:-0.708334 8:-1 9:-0.764814 10:-1 11:-0.537037 12:-0.546296 13:-0.657407 14:-1 15:-1 16:-1 17:-1 18:-0.236111 19:-1 20:-1 21:-1 22:-1 23:-1 24:-1 28:-1 30:-0.644833 31:0.103479 32:0.0185481 33:0.103479 34:-0.89732 35:0.0185481 36:-0.644833 37:0.103479 38:0.0185481 39:0.103479 40:-0.89732 41:0.0185481 42:-0.644622 43:-0.447418 44:-0.35217 45:-1 46:-0.16687 47:-0.226571 48:-0.738385 49:-0.114226 50:-1 51:-1 52:-0.868104 53:-0.868157 54:-0.682284 55:-1 56:-0.521361 57:-0.718783 58:-0.97382 59:-0.950954 60:-1 61:-1 
0.08772826833666524 1:-0.37931 2:-0.219142 3:-0.11538 4:0.126174 5:-0.836364 6:0.0923288 7:-0.256251 8:-0.884 9:-0.788333 10:-0.633334 11:-0.583333 12:-0.591667 13:-0.845833 14:-0.836364 15:-0.233335 16:-1 17:-1 18:-1 19:-1 20:-1 21:-1 22:-1 23:-1 24:-1 28:-1 30:0.0371933 31:0.208417 32:-0.0827326 33:0.208417 34:-0.651807 35:-0.0827326 36:0.0371933 37:0.208417 38:-0.0827326 39:0.208417 40:-0.651807 41:-0.0827326 42:0.350409 43:0.49836 44:0.540058 45:0.584171 46:0.422009 47:0.542011 48:0.260843 49:-0.411598 50:-0.538431 51:-0.759099 52:-0.475883 53:-0.387785 54:-0.29729 55:-0.452315 56:-0.606434 57:-0.46945 58:-0.597266 59:-0.463794 60:-0.970556 61:-0.926785 
0.2398684452793456 1:-0.546798 2:-0.336886 3:-0.300199 4:0.225712 5:-1 6:0.539631 7:-0.777778 8:-0.705396 9:-1 10:-0.767197 11:-0.4709 12:-1 13:-0.804233 14:-0.896104 15:-1 16:-1 17:-0.676191 18:-1 19:-1 20:-1 21:-0.20635 22:-1 23:-1 24:-1 28:-1 30:-0.838958 31:-0.16521 32:0.00545168 33:-0.16521 34:-0.112939 35:0.00545168 36:-0.838958 37:-0.16521 38:0.00545168 39:-0.16521 40:-0.112939 41:0.00545168 42:-0.411392 43:-0.445326 44:-0.543335 45:-0.763551 46:-0.672682 47:-0.602916 48:-0.765201 49:-0.78181 50:-1 51:-1 52:0.159355 53:0.032688 54:0.123024 55:0.281065 56:0.134679 57:0.169492 58:0.109058 59:-0.432881 60:-1 61:-1 
0.2024228831011569 1:-0.29064 2:-0.455128 3:-0.109749 4:0.0720293 5:-0.926455 6:-0.214814 7:0.455054 8:-0.947865 9:-0.619475 10:-0.670413 11:-0.812733 12:-0.816479 13:-1 14:-1 15:-0.483146 16:-0.308988 17:-1 18:-1 19:-1 20:-1 21:-1 22:-1 23:-1 24:-1 28:-1 30:-0.65054 31:-0.318864 32:-0.485349 33:-0.318864 34:0.448045 35:-0.485349 36:-0.65054 37:-0.318864 38:-0.485349 39:-0.318864 40:0.448045 41:-0.485349 42:-0.504709 43:-0.471666 44:-0.416182 45:-0.527755 46:-0.852429 47:-0.859585 48:-0.746583 49:-0.688723 50:-0.63526 51:-0.762444 52:0.391462 53:0.484803 54:0.587694 55:0.651265 56:-0.421172 57:0.358702 58:0.517825 59:0.453244 60:-0.817658 61:-0.690283 
0.09635829154756258 1:-0.763547 2:0.580165 3:-0.589462 4:-0.0627855 5:-0.840355 6:0.733311 7:-0.914634 8:-1 9:-1 10:-1 11:-0.186992 12:-1 13:-0.699187 14:-1 15:-1 16:-0.500001 17:-1 18:-1 19:-1 20:-1 21:-1 22:-1 23:-1 24:-1 28:-1 30:-0.60519 31:-0.461545 32:-0.340857 33:-0.461545 34:-0.425716 35:-0.340857 36:-0.60519 37:-0.461545 38:-0.340857 39:-0.461545 40:-0.425716 41:-0.340857 42:-0.336184 43:-0.175527 44:-0.139493 45:-1 46:-0.325539 47:-0.650835 48:-1 49:-0.779044 50:-0.960245 51:-1 52:-0.0809127 53:-0.00311674 54:-0.237982 55:-1 56:-0.258257 57:-0.221496 58:-1 59:-0.0418525 60:-0.701577 61:-1 
0.7224599932377657 1:-0.812808 2:0.570727 3:-0.351083 4:0.179212 5:-1 6:0.631773 7:-0.902778 8:-0.871111 9:-1 10:-0.592593 11:-1 12:-1 13:-0.314814 14:-0.818182 15:-1 16:-1 17:-0.433333 18:-1 19:-1 20:-1 21:-1 22:-1 23:-1 24:-1 28:-1 30:-0.637876 31:0.198285 32:0.0310001 33:0.198285 34:-0.841418 35:0.0310001 36:-0.637876 37:0.198285 38:0.0310001 39:0.198285 40:-0.841418 41:0.0310001 42:-0.627267 43:-0.369517 44:-0.215147 45:-1 46:-0.21946 47:-0.283348 48:-1 49:-0.562809 50:-0.725733 51:-1 52:-0.890006 53:-0.689294 54:-0.45711 55:-1 56:-0.381376 57:-0.672302 58:-1 59:-0.682943 60:-0.968416 61:-1 
0.5563214525807144 1:-0.674877 2:0.583149 3:-0.262272 4:0.235377 5:-0.869091 6:0.408958 7:-0.65 8:-0.9072 9:-0.661333 10:-1 11:-1 12:-1 13:-0.259999 14:-0.869091 15:-1 16:-0.18 17:-1 18:-1 19:-1 20:-1 21:-1 22:-1 23:-1 24:-1 28:-1 30:-0.791869 31:-0.258023 32:-0.352463 33:-0.258023 34:-0.0138996 35:-0.352463 36:-0.791869 37:-0.258023 38:-0.352463 39:-0.258023 40:-0.0138996 41:-0.352463 42:-0.347877 43:-0.388313 44:-0.371135 45:-1 46:-0.568917 47:-0.561398 48:-0.79543 49:-0.798385 50:-0.803399 51:-1 52:0.0610918 53:0.251547 54:0.231395 55:-1 56:-0.00194552 57:0.0991766 58:-0.949854 59:0.292323 60:-0.994023 61:-1 
0.2702808864732408 1:-0.261084 2:-0.759086 3:0.436558 4:0.0853032 5:-1 6:-0.816261 7:0.255435 8:-0.293912 9:0.748556 10:-0.84058 11:-0.637682 12:-0.289855 13:-0.597826 14:-0.928854 15:-1 16:-0.331522 17:-0.77826 18:-1 19:-1 20:-1 21:-1 22:-1 23:-1 24:-1 28:-1 30:-0.405599 31:-0.11314 32:0.22511 33:-0.11314 34:-0.0390385 35:0.22511 36:-0.405599 37:-0.11314 38:0.22511 39:-0.11314 40:-0.0390385 41:0.22511 42:-0.179958 43:-0.209952 44:-0.101391 45:-0.193425 46:-0.583764 47:-0.469392 48:-0.518611 49:-0.840687 50:-1 51:-0.855768 52:0.0244117 53:0.174184 54:0.0507753 55:0.256771 56:0.3531 57:0.515046 58:0.425469 59:-0.614751 60:-1 61:-0.807335 
0.4769329365398139 1:-0.950739 2:0.561304 3:-0.665222 4:-0.415557 5:-0.70248 6:0.562475 7:-0.840909 8:-1 9:-1 10:1 11:-1 12:-1 13:-1 14:-1 15:-1 16:-1 17:-1 18:-1 19:-1 20:-1 21:-1 22:-1 23:-1 24:-1 28:-1 30:-0.692419 31:-0.110847 32:0.113702 33:-0.110847 34:-0.824255 35:0.113702 36:-0.692419 37:-0.110847 38:0.113702 39:-0.110847 40:-0.824255 41:0.113702 42:-0.921008 43:-1 44:-0.391264 45:-1 46:-0.67199 47:-0.767392 48:-1 49:-0.71445 50:-1 51:-1 52:-0.928474 53:-1 54:-0.544196 55:-1 56:-0.540846 57:-0.428925 58:-1 59:-0.459197 60:-1 61:-1 
0.2391906575019455 1:-0.428571 2:0.0470647 3:-0.45318 4:-0.115558 5:-1 6:0.507466 7:-0.626666 8:-0.690666 9:-0.887111 10:-1 11:-1 12:-0.782223 13:-1 14:-0.738182 15:-1 16:-0.726667 17:-1 18:-1 19:-1 20:-1 21:-1 22:-1 23:-1 24:-1 28:-1 30:-0.363735 31:0.564031 32:0.0212568 33:0.564031 34:-0.209882 35:0.0212568 36:-0.363735 37:0.564031 38:0.0212568 39:0.564031 40:-0.209882 41:0.0212568 42:-0.117962 43:-0.0434236 44:-0.531401 45:0.0312758 46:0.130226 47:0.0715644 48:0.166295 49:0.136796 50:-0.746449 51:-1 52:0.0547285 53:0.188839 54:-0.747113 55:0.327038 56:-0.314556 57:-0.242287 58:-0.227513 59:-0.086817 60:-0.799348 61:-1 
0.3331645919224949 1:-0.251232 2:-0.460404 3:-0.116227 4:0.0455439 5:-1 6:-0.251537 7:0.580644 8:-0.950107 9:-0.817921 10:-0.211472 11:-1 12:-0.824373 13:-0.867383 14:-1 15:-1 16:-0.118279 17:-0.780645 18:-1 19:-1 20:-1 21:-1 22:-1 23:-1 24:-1 28:-1 30:-0.71231 31:-0.171469 32:-0.474709 33:-0.171469 34:0.416931 35:-0.474709 36:-0.71231 37:-0.171469 38:-0.474709 39:-0.171469 40:0.416931 41:-0.474709 42:-0.503107 43:-0.374876 44:-0.311239 45:-0.479372 46:-0.762796 47:-0.802833 48:-0.667235 49:-0.57947 50:-0.803725 51:-1 52:0.51145 53:0.511393 54:0.505805 55:0.699272 56:0.239656 57:0.365978 58:0.436279 59:-0.638842 60:-0.75324 61:-1 
0.3339706347976172 1:-0.103448 2:-0.616312 3:0.124127 4:0.0645842 5:-1 6:-0.501839 7:0.231481 8:-0.0977788 9:-0.686419 10:-0.864198 11:-0.537037 12:0.0586416 13:-1 14:-1 15:-1 16:-0.240742 17:-1 18:-0.74537 19:-1 20:-1 21:-1 22:-1 23:-1 24:-1 28:-1 30:-0.398721 31:-0.00213418 32:-0.47155 33:-0.00213418 34:0.17294 35:-0.47155 36:-0.398721 37:-0.00213418 38:-0.47155 39:-0.00213418 40:0.17294 41:-0.47155 42:0.038616 43:-0.0298423 44:0.0493834 45:-0.411397 46:-0.350374 47:-0.0932349 48:-0.0746895 49:-0.841688 50:-1 51:-1 52:0.180739 53:0.170702 54:0.189969 55:-0.0401593 56:0.366388 57:0.457318 58:0.351548 59:-0.838186 60:-1 61:-1 
0.3013062349390441 1:-0.586207 2:-0.279547 3:-0.287159 4:-0.240461 5:-0.88906 6:0.326671 7:-0.70339 8:-0.842712 9:-0.856496 10:0.242935 11:0.41243 12:-1 13:-0.79096 14:-1 15:-1 16:-1 17:-1 18:-1 19:-1 20:-1 21:-1 22:-1 23:-1 24:-1 28:-1 30:-0.596702 31:-0.39913 32:0.14385 33:-0.39913 34:-0.404992 35:0.14385 36:-0.596702 37:-0.39913 38:0.14385 39:-0.39913 40:-0.404992 41:0.14385 42:-0.194568 43:-0.328481 44:-0.319993 45:-0.356781 46:-0.720324 47:-0.756758 48:-0.688666 49:-0.736279 50:-0.798973 51:-0.918259 52:-0.155221 53:0.00964469 54:0.0102154 55:0.167512 56:-0.338521 57:-0.05976 58:0.165251 59:-0.523993 60:-0.788308 61:-0.741806 
0.6604057300202206 1:-0.901478 2:0.565039 3:-0.0807099 4:0.469697 5:-0.757576 6:0.260417 7:-0.611112 8:-0.828148 9:-0.686419 10:-1 11:-1 12:-1 13:-1 14:-0.757576 15:0.135801 16:-0.240742 17:-1 18:-1 19:-1 20:-1 21:-1 22:-1 23:-1 24:-1 28:-1 30:-0.733147 31:0.0524278 32:0.109883 33:0.0524278 34:-0.584872 35:0.109883 36:-0.733147 37:0.0524278 38:0.109883 39:0.0524278 40:-0.584872 41:0.109883 42:-0.90702 43:-0.844118 44:-0.606258 45:-1 46:-0.5053 47:-0.646432 48:-1 49:-0.669406 50:-1 51:-1 52:-0.348909 53:-0.343819 54:-0.0469497 55:-1 56:-0.534375 57:-0.453366 58:-1 59:-0.349622 60:-1 61:-1 
0.3191030365240358 1:-0.458128 2:0.0516296 3:-0.563343 4:-0.304174 5:-1 6:0.573137 7:-0.659723 8:-0.806666 9:-0.882407 10:-0.38889 11:-1 12:-1 13:-0.828703 14:-1 15:-1 16:-0.715278 17:-1 18:-1 19:-1 20:-1 21:-1 22:-1 23:-1 24:-1 28:-1 30:-0.482379 31:0.565986 32:-0.3757 33:0.565986 34:-0.0533058 35:-0.3757 36:-0.482379 37:0.565986 38:-0.3757 39:0.565986 40:-0.0533058 41:-0.3757 42:-0.154772 43:-0.211186 44:-0.233349 45:-0.296309 46:-0.0546921 47:-0.0870377 48:-0.00714956 49:-0.045726 50:-0.702281 51:-0.848039 52:0.207039 53:0.369332 54:0.220012 55:-0.0857308 56:-0.178251 57:-0.041907 58:-0.00802923 59:0.154573 60:-0.830286 61:-0.724445 
0.2531408720258468 1:-0.46798 2:0.0443642 3:-0.258148 4:0.150561 5:-1 6:0.447608 7:-0.605634 8:-1 9:-0.642253 10:-0.793428 11:-0.765258 12:-1 13:-0.652582 14:-0.631243 15:-1 16:-1 17:-1 18:-0.612676 19:-1 20:-1 21:-1 22:-1 23:-1 24:-1 28:-1 30:-0.186489 31:-0.541443 32:-0.28675 33:-0.541443 34:-0.461896 35:-0.28675 36:-0.186489 37:-0.541443 38:-0.28675 39:-0.541443 40:-0.461896 41:-0.28675 42:0.223917 43:0.317449 44:0.0559191 45:-0.140126 46:-0.0794771 47:0.0358054 48:-0.676926 49:0.0439411 50:-0.916007 51:-1 52:-0.396154 53:-0.252879 54:-0.18263 55:-0.276306 56:-0.198032 57:-0.0964511 58:-0.709534 59:-0.0461641 60:-0.817636 61:-1 
0.4936990116221479 1:0.527094 2:-0.766422 3:-0.325594 4:-0.356099 5:-0.961945 6:-0.050032 7:0.0174422 8:-0.595348 9:-0.556976 10:-0.488374 11:-0.806202 12:-0.715116 13:-0.856589 14:-1 15:-1 16:-0.880814 17:-1 18:-1 19:-1 20:-1 21:-1 22:-1 23:-1 24:-1 28:-1 30:-0.215428 31:-0.024177 32:-0.0131923 33:-0.024177 34:0.440932 35:-0.0131923 36:-0.215428 37:-0.024177 38:-0.0131923 39:-0.024177 40:0.440932 41:-0.0131923 42:-0.028743 43:0.476721 44:0.358313 45:0.217697 46:-0.193683 47:-0.224642 48:-0.185005 49:-0.583922 50:-0.4655 51:-0.806463 52:0.312875 53:0.439749 54:0.338362 55:0.745159 56:0.694215 57:1 58:1 59:0.305703 60:0.745482 61:-0.422169 
0.5836586757582108 1:-0.251232 2:-0.349052 3:-0.0603716 4:0.442752 5:-0.929619 6:0.157016 7:-0.322583 8:-0.850322 9:-0.726881 10:-0.684588 11:-0.103943 12:-0.648745 13:-0.867383 14:-1 15:-1 16:-0.77957 17:-1 18:-1 19:-1 20:-0.526881 21:-1 22:-1 23:0.204302 24:-1 28:-1 30:-0.344408 31:-0.483649 32:-0.395204 33:-0.483649 34:-0.448566 35:-0.395204 36:-0.344408 37:-0.483649 38:-0.395204 39:-0.483649 40:-0.448566 41:-0.395204 42:0.0367926 43:0.0623505 44:0.0277652 45:0.00643459 46:-0.385162 47:-0.30096 48:-0.122209 49:-0.398225 50:-0.625306 51:-0.951493 52:-0.305107 53:-0.0280371 54:-0.063298 55:0.0482967 56:-0.373178 57:0.0568623 58:0.282732 59:-0.295389 60:-0.56788 61:-0.978059 
1.922042513975522 1:-0.37931 2:-0.241484 3:-0.659274 4:-0.298473 5:-0.918182 6:0.751974 7:-0.9125 8:-0.884 9:-0.682499 10:-1 11:-0.791667 12:-1 13:-1 14:-1 15:-0.616667 16:-1 17:-1 18:-1 19:-1 20:-1 21:-1 22:-1 23:-1 24:-1 28:-1 30:0.226697 31:0.09139 32:0.105768 33:0.09139 34:-0.796117 35:0.105768 36:0.226697 37:0.09139 38:0.105768 39:0.09139 40:-0.796117 41:0.105768 42:0.371179 43:0.5333 44:0.467356 45:0.334672 46:0.0302288 47:-0.697682 48:-0.166415 49:-0.465449 50:-0.469037 51:-1 52:-0.437849 53:-0.349653 54:-0.378065 55:-0.360195 56:-0.437477 57:-0.640597 58:-0.367722 59:-0.502309 60:-0.325994 61:-1 
0.1913976703333659 1:-0.20197 2:-0.471053 3:-0.508625 4:-0.239869 5:-1 6:0.589889 7:-0.714286 8:-0.905306 9:-0.82721 10:-1 11:-0.14966 12:-0.666666 13:-1 14:-0.93321 15:-0.843537 16:-1 17:-1 18:-1 19:-1 20:-1 21:-1 22:-1 23:-1 24:-1 28:-1 30:-0.3748 31:0.218906 32:-0.495344 33:0.218906 34:0.199456 35:-0.495344 36:-0.3748 37:0.218906 38:-0.495344 39:0.218906 40:0.199456 41:-0.495344 42:-0.365495 43:-0.404297 44:-0.433123 45:-0.301771 46:0.0870223 47:0.223507 48:0.132375 49:-0.754911 50:-0.805881 51:-1 52:0.386013 53:0.365819 54:0.320222 55:0.243424 56:0.391147 57:0.212743 58:0.156756 59:-0.374664 60:-0.809779 61:-1 
0.05620685851606098 1:-0.507389 2:-0.255643 3:-0.102246 4:0.179315 5:-1 6:0.286087 7:-0.529852 8:-0.930746 9:-1 10:0.313429 11:-0.004975 12:-0.756219 13:-1 14:-0.902307 15:-0.771144 16:-1 17:-1 18:-1 19:-1 20:-1 21:-0.25373 22:-1 23:-1 24:-1 28:-1 30:-0.640041 31:-0.333055 32:0.0692098 33:-0.333055 34:-0.325845 35:0.0692098 36:-0.640041 37:-0.333055 38:0.0692098 39:-0.333055 40:-0.325845 41:0.0692098 42:-0.198924 43:-0.331331 44:-0.219173 45:-0.326466 46:-0.582959 47:-0.726182 48:-0.670755 49:-0.722956 50:-0.74459 51:-1 52:-0.142071 53:0.0107365 54:0.0180495 55:0.357121 56:-0.21843 57:0.234154 58:0.154851 59:-0.582451 60:-0.86527 61:-1 
0.0008655280925779893 1:-0.399015 2:0.0467382 3:-0.174471 4:0.251697 5:-1 6:0.446846 7:-0.820513 8:-0.821538 9:-0.457264 10:-0.811967 11:-1 12:-1 13:-0.683761 14:-0.748252 15:-0.606839 16:-0.73718 17:-0.738462 18:-1 19:-1 20:-1 21:-1 22:-1 23:-1 24:-1 28:-1 30:-0.621366 31:0.500283 32:-0.40126 33:0.500283 34:0.230429 35:-0.40126 36:-0.621366 37:0.500283 38:-0.40126 39:0.500283 40:0.230429 41:-0.40126 42:-0.419502 43:-0.461752 44:-0.222761 45:-0.200179 46:-0.240132 47:-0.570284 48:-0.154326 49:-0.754798 50:-0.884684 51:-1 52:0.398646 53:0.474145 54:0.492781 55:0.625371 56:0.0237374 57:-0.100265 58:0.158341 59:-0.68203 60:-0.774357 61:-1 
0.4610968682229561 1:-0.300493 2:-0.467968 3:-0.13144 4:0.0430653 5:-1 6:-0.133149 7:0.312499 8:-0.894545 9:-0.615151 10:-0.666667 11:-1 12:-0.628787 13:-0.859849 14:-0.85124 15:-0.825758 16:-0.767046 17:-1 18:-0.687501 19:-1 20:-1 21:-1 22:-1 23:-1 24:-1 28:-1 30:-0.0678239 31:0.457933 32:-0.0233823 33:0.457933 34:-0.569821 35:-0.0233823 36:-0.0678239 37:0.457933 38:-0.0233823 39:0.457933 40:-0.569821 41:-0.0233823 42:0.162178 43:0.275364 44:0.255249 45:0.280902 46:0.257586 47:-0.440646 48:0.375976 49:0.0809353 50:-1 51:-1 52:-0.27802 53:-0.238162 54:-0.238719 55:-0.00732504 56:-0.650149 57:-0.944245 58:-0.494551 59:-0.676458 60:-1 61:-1 
0.3140993118956558 1:-0.448276 2:-0.262255 3:-0.330458 4:-0.00268315 5:-1 6:0.579562 7:-0.856164 8:-0.936438 9:-0.768036 10:-0.598174 11:-1 12:-0.105023 13:-0.83105 14:-0.820672 15:-1 16:-0.719179 17:-1 18:-1 19:-1 20:-1 21:-1 22:-1 23:-1 24:-1 28:-1 30:-0.738129 31:-0.0165688 32:0.119046 33:-0.0165688 34:-0.0314401 35:0.119046 36:-0.738129 37:-0.0165688 38:0.119046 39:-0.0165688 40:-0.0314401 41:0.119046 42:-0.49171 43:-0.650795 44:-0.569127 45:-0.696421 46:-0.599907 47:-0.431915 48:-0.517954 49:-0.478532 50:-1 51:-0.813188 52:0.0868191 53:0.133052 54:0.0629319 55:-0.154778 56:0.113594 57:0.249135 58:0.173742 59:-0.189466 60:-1 61:-0.664046 
0.1911397924374794 1:-0.369458 2:0.0511139 3:-0.110326 4:0.319515 5:-1 6:0.442836 7:-0.740741 8:-1 9:-0.790946 10:-0.0946525 11:-1 12:-0.798354 13:-0.695472 14:-0.757576 15:-1 16:-0.493826 17:-0.496295 18:-1 19:-1 20:-1 21:-1 22:-1 23:-1 24:-1 28:-1 30:-0.384886 31:0.661069 32:0.0339886 33:0.661069 34:-0.10643 35:0.0339886 36:-0.384886 37:0.661069 38:0.0339886 39:0.661069 40:-0.10643 41:0.0339886 42:-0.0876307 43:-0.120915 44:0.0131426 45:0.0705903 46:0.0453742 47:-0.182468 48:0.0937956 49:-0.707455 50:-0.647449 51:-1 52:0.135841 53:0.330023 54:0.2415 55:0.296662 56:-0.312 57:-0.151834 58:-0.171012 59:-0.733327 60:-0.806245 61:-1 
0.006605397557273442 1:-0.527094 2:-0.453913 3:-0.357515 4:-0.189751 5:-1 6:-0.0944023 7:0.50769 8:-0.785846 9:-0.739487 10:-1 11:-1 12:-1 13:-1 14:-1 15:-1 16:-0.684616 17:-1 18:-0.576924 19:-1 20:-1 21:-1 22:-1 23:-1 24:-1 28:-1 30:-0.564744 31:0.0239955 32:0.198732 33:0.0239955 34:-0.441289 35:0.198732 36:-0.564744 37:0.0239955 38:0.198732 39:0.0239955 40:-0.441289 41:0.198732 42:-0.147947 43:-0.207238 44:-0.0434538 45:-0.647122 46:-0.873258 47:-0.869618 48:-0.650966 49:-0.662939 50:-0.531539 51:-1 52:-0.0454119 53:-0.0220513 54:-0.123263 55:-0.32411 56:-0.437882 57:-0.378908 58:-0.278059 59:-0.664749 60:-0.750526 61:-1 
0.8450089408488001 1:-0.931034 2:0.555516 3:-0.280427 4:0.434748 5:-1 6:0.602455 7:-0.708334 8:-1 9:-1 10:-1 11:-1 12:-1 13:-1 14:-0.727273 15:-1 16:-0.145833 17:-0.149999 18:-1 19:-1 20:-1 21:-1 22:-1 23:-1 24:-1 28:-1 30:-0.756421 31:-0.088336 32:0.0868651 33:-0.088336 34:-0.817931 35:0.0868651 36:-0.756421 37:-0.088336 38:0.0868651 39:-0.088336 40:-0.817931 41:0.0868651 42:-0.912721 43:-0.841901 44:-0.587471 45:-1 46:-0.592074 47:-0.766469 48:-1 49:-0.697774 50:-1 51:-1 52:-0.949569 53:-0.908879 54:-0.630558 55:-1 56:-0.488421 57:-0.389155 58:-1 59:-0.490809 60:-1 61:-1 
0.3104109118262651 1:-0.527094 2:-0.271074 3:-0.400124 4:-0.360769 5:-1 6:0.392722 7:-0.569231 8:-0.928615 9:-0.60923 10:-0.323079 11:0.282052 12:-1 13:-1 14:-1 15:-1 16:-1 17:-1 18:-1 19:-1 20:-1 21:-1 22:-1 23:-1 24:-1 28:-1 30:-0.766226 31:0.145567 32:0.103564 33:0.145567 34:0.217352 35:0.103564 36:-0.766226 37:0.145567 38:0.103564 39:0.145567 40:0.217352 41:0.103564 42:-0.409071 43:-0.753977 44:-0.604314 45:-0.641976 46:-0.761033 47:-0.28386 48:-0.395607 49:-0.592145 50:-0.749582 51:-1 52:0.564624 53:0.180057 54:0.219582 55:0.358649 56:-0.00725457 57:-0.109985 58:-0.0340626 59:-0.445905 60:-0.885755 61:-1 
7.366485852734158 1:-0.694581 2:-0.70609 3:-0.665832 4:-0.368415 5:-1 6:0.778359 7:-0.78125 8:-0.903333 9:-1 10:-1 11:-1 12:-0.659723 13:-1 14:-1 15:-0.680557 16:-1 17:-1 18:-1 19:-1 20:-1 21:-1 22:-1 23:-1 24:-1 28:-1 30:-0.830814 31:-0.0268406 32:-0.0449202 33:-0.0268406 34:-0.842778 35:-0.0449202 36:-0.830814 37:-0.0268406 38:-0.0449202 39:-0.0268406 40:-0.842778 41:-0.0449202 42:-0.45444 43:-0.424502 44:-0.654258 45:-0.697262 46:-0.845641 47:-0.801322 48:-0.975192 49:-0.399551 50:-0.794844 51:-1 52:-0.847776 53:-0.747175 54:-0.546391 55:-0.390533 56:-0.52251 57:-0.314016 58:-0.57242 59:-0.569001 60:-0.637577 61:-1 
0.2684438345002375 1:-0.20197 2:-0.782872 3:0.392353 4:0.0653337 5:-1 6:-0.853251 7:0.214286 8:0.136328 9:0.295919 10:-0.700681 11:-0.489797 12:-0.666666 13:-0.874149 14:-0.79963 15:-0.843537 16:-1 17:-0.375511 18:-1 19:-1 20:-1 21:-1 22:-1 23:-1 24:-1 28:-1 30:-0.0868539 31:-0.379508 32:-0.53615 33:-0.379508 34:-0.0744208 35:-0.53615 36:-0.0868539 37:-0.379508 38:-0.53615 39:-0.379508 40:-0.0744208 41:-0.53615 42:0.27355 43:-0.099229 44:-0.00336822 45:-0.323721 46:0.11752 47:-0.166793 48:-0.516169 49:-0.824141 50:-1 51:-1 52:-0.187059 53:-0.159769 54:-0.186754 55:0.00373502 56:0.302266 57:0.630239 58:0.339044 59:-0.625744 60:-1 61:-1 
0.2609012992770139 1:0.270936 2:-0.782222 3:-0.207159 4:-0.087815 5:-1 6:-0.0999624 7:0.0787657 8:-0.491506 9:-0.710045 10:-0.799088 11:-1 12:-0.776256 13:-0.746576 14:-0.910337 15:-0.789955 16:-0.859589 17:-0.860274 18:-1 19:-1 20:-1 21:-1 22:-1 23:-1 24:-1 28:-1 30:-0.276832 31:0.0961429 32:0.0649523 33:0.0961429 34:0.121025 35:0.0649523 36:-0.276832 37:0.0961429 38:0.0649523 39:0.0961429 40:0.121025 41:0.0649523 42:-0.144071 43:0.422605 44:0.295595 45:0.136524 46:-0.324633 47:-0.380178 48:-0.41694 49:-0.580614 50:-0.486135 51:-1 52:0.177163 53:0.291532 54:0.165025 55:0.270611 56:0.461382 57:0.784493 58:0.696412 59:0.51184 60:0.0607733 61:-1 
0.3842089438820389 1:0.0147783 2:-0.526521 3:-0.275141 4:-0.0795676 5:-0.945455 6:0.0923288 7:-0.125001 8:-0.690666 9:-0.717777 10:-0.877778 11:-0.722222 12:-0.863889 13:-0.897222 14:-0.781819 15:-1 16:-0.658333 17:-1 18:-1 19:-1 20:-1 21:-1 22:-1 23:-1 24:-1 28:-1 30:0.287363 31:0.0347031 32:-0.0640102 33:0.0347031 34:0.114929 35:-0.0640102 36:0.287363 37:0.0347031 38:-0.0640102 39:0.0347031 40:0.114929 41:-0.0640102 42:0.428356 43:0.585394 44:0.549645 45:0.319945 46:0.588018 47:0.694344 48:0.824636 49:-0.570717 50:-0.779159 51:-1 52:0.233214 53:0.359363 54:0.39066 55:0.46363 56:-0.0588145 57:0.0248702 58:0.0538239 59:-0.200748 60:-0.979848 61:-1 
0.7158341288145933 1:-0.330049 2:-0.229932 3:-0.410834 4:-0.068097 5:-1 6:0.421374 7:-0.423529 8:-0.945412 9:-0.800784 10:-0.309806 11:-1 12:-1 13:-0.854902 14:-1 15:-1 16:-0.517647 17:-0.76 18:-1 19:-1 20:-1 21:-1 22:-1 23:-1 24:-1 28:-1 30:-0.146166 31:0.442399 32:-0.0103665 33:0.442399 34:-0.438483 35:-0.0103665 36:-0.146166 37:0.442399 38:-0.0103665 39:0.442399 40:-0.438483 41:-0.0103665 42:0.0999827 43:0.244049 44:0.297755 45:0.290703 46:0.40184 47:0.526375 48:0.493942 49:-0.281668 50:-0.186183 51:-1 52:-0.178855 53:-0.146381 54:-0.154747 55:-0.168932 56:-0.407555 57:-0.525178 58:-0.474255 59:-0.574191 60:-0.845878 61:-1 
0.2039476406977047 1:-0.448276 2:-0.262768 3:-0.117922 4:0.345057 5:-0.910337 6:0.377152 7:-0.664384 8:-0.809315 9:-0.884018 10:-0.397262 11:-1 12:-0.776256 13:-0.83105 14:-0.910337 15:-0.159819 16:-1 17:-1 18:-1 19:-1 20:-1 21:-1 22:-1 23:-0.232879 24:-1 28:-1 30:-0.653695 31:-0.407408 32:0.0723929 33:-0.407408 34:-0.300486 35:0.0723929 36:-0.653695 37:-0.407408 38:0.0723929 39:-0.407408 40:-0.300486 41:0.0723929 42:-0.242325 43:-0.374879 44:-0.315612 45:-0.331682 46:-0.69103 47:-0.523485 48:-0.591362 49:-0.754495 50:-0.747964 51:-0.90849 52:-0.153721 53:-0.0200233 54:0.0149469 55:0.359346 56:0.0685183 57:0.0926503 58:0.0707864 59:-0.470842 60:-0.776698 61:-0.78725 
0.6982712250854129 1:-0.192118 2:-0.53508 3:0.153591 4:0.264794 5:-0.933884 6:-0.237095 7:-0.0101027 8:-0.531313 9:-0.657912 10:-0.40741 11:-0.83165 12:-0.835017 13:-0.875421 14:-0.867769 15:-0.690237 16:0.242425 17:-1 18:-1 19:-1 20:-1 21:-1 22:-1 23:-1 24:-1 28:-1 30:-0.154574 31:0.225314 32:-0.388411 33:0.225314 34:0.0758868 35:-0.388411 36:-0.154574 37:0.225314 38:-0.388411 39:0.225314 40:0.0758868 41:-0.388411 42:0.470787 43:0.334625 44:0.288165 45:0.266482 46:0.276304 47:0.251348 48:-0.141106 49:-0.918184 50:-0.97181 51:-0.776872 52:0.180814 53:0.150558 54:0.172529 55:0.311114 56:0.439799 57:0.369283 58:0.164858 59:-0.792099 60:-0.961203 61:-0.873019 
0.5467452156041018 1:-0.753695 2:0.580015 3:-0.486269 4:-0.0515519 5:-1 6:0.589889 7:-0.75 8:-0.779048 9:-1 10:-1 11:-0.603175 12:-0.222223 13:-1 14:-1 15:-1 16:-1 17:-0.514286 18:-1 19:-1 20:-1 21:-1 22:-1 23:-1 24:-1 28:-1 30:-0.599415 31:0.383053 32:-0.334468 33:0.383053 34:-0.499653 35:-0.334468 36:-0.599415 37:0.383053 38:-0.334468 39:0.383053 40:-0.499653 41:-0.334468 42:-0.448395 43:-0.310953 44:-0.287007 45:-1 46:0.05795 47:-0.295864 48:-1 49:-0.330403 50:-0.991854 51:-1 52:0.0734511 53:0.130485 54:-0.257923 55:-1 56:-0.433781 57:-0.568547 58:-1 59:-0.631913 60:-0.869306 61:-1 
0.3702290000715983 1:-0.615764 2:-0.255078 3:-0.366381 4:0.1441 5:-1 6:0.439114 7:-0.5625 8:-0.917143 9:-0.0928541 10:-1 11:-1 12:-1 13:-1 14:-1 15:-1 16:-1 17:-0.635715 18:-1 19:-1 20:-1 21:-1 22:0.160713 23:-1 24:-1 28:-1 30:-0.572348 31:-0.396901 32:-0.371942 33:-0.396901 34:-0.400193 35:-0.371942 36:-0.572348 37:-0.396901 38:-0.371942 39:-0.396901 40:-0.400193 41:-0.371942 42:-0.357986 43:-0.238847 44:-0.242923 45:-0.437254 46:-0.490641 47:-0.649909 48:-0.541421 49:-0.899636 50:-1 51:-0.925557 52:-0.367565 53:-0.130177 54:-0.0906307 55:-0.243042 56:-0.13916 57:0.0576849 58:0.119429 59:-0.658565 60:-1 61:-0.780554 
0.706964713382639 1:-0.438424 2:-0.297725 3:-0.429695 4:-0.339482 5:-0.911548 6:0.043836 7:0.229728 8:-1 9:-0.771171 10:-0.405408 11:-0.774775 12:-0.77928 13:-1 14:-1 15:-1 16:-0.722973 17:-1 18:-1 19:-1 20:-1 21:-1 22:-1 23:-1 24:-1 28:-1 30:-0.705796 31:0.293949 32:0.0337931 33:0.293949 34:-0.284575 35:0.0337931 36:-0.705796 37:0.293949 38:0.0337931 39:0.293949 40:-0.284575 41:0.0337931 42:-0.445915 43:-0.410503 44:-0.498627 45:-0.206506 46:-0.597461 47:-0.179869 48:-0.207092 49:-0.603109 50:-0.470666 51:-1 52:-0.00846889 53:0.0792247 54:0.0528611 55:0.200444 56:-0.413756 57:-0.354505 58:-0.174667 59:-0.708663 60:-0.62475 61:-1 
0.9057172775975729 1:-0.940887 2:0.548516 3:-0.3806 4:0.251122 5:-1 6:0.583335 7:-0.695652 8:-1 9:-1 10:-0.36232 11:-1 12:-1 13:-1 14:-1 15:-1 16:0.782608 17:-1 18:-1 19:-1 20:-1 21:-1 22:-1 23:-1 24:-1 28:-1 30:-0.765728 31:-0.0933562 32:0.0741545 33:-0.0933562 34:-0.856191 35:0.0741545 36:-0.765728 37:-0.0933562 38:0.0741545 39:-0.0933562 40:-0.856191 41:0.0741545 42:-0.928007 43:-0.851069 44:-0.550911 45:-1 46:-0.567045 47:-0.814584 48:-1 49:-0.74561 50:-1 51:-1 52:-0.935526 53:-0.902921 54:-0.583489 55:-1 56:-0.543789 57:-0.43322 58:-1 59:-0.454968 60:-1 61:-1 
0.301691496324998 1:-0.399015 2:-0.149332 3:-0.41326 4:-0.140326 5:-1 6:0.555095 7:-0.685898 8:-0.881026 9:-1 10:-0.811967 11:-0.57265 12:-0.581197 13:-0.525641 14:-1 15:-0.803419 16:-1 17:-1 18:-1 19:-1 20:-1 21:-1 22:-1 23:-1 24:-1 28:-1 30:0.0433708 31:0.200052 32:-0.0838832 33:0.200052 34:-0.653444 35:-0.0838832 36:0.0433708 37:0.200052 38:-0.0838832 39:0.200052 40:-0.653444 41:-0.0838832 42:0.316946 43:0.37169 44:0.367923 45:-0.0260815 46:0.338279 47:0.261433 48:0.348581 49:-0.772474 50:-1 51:-1 52:-0.383335 53:-0.377674 54:-0.353363 55:-0.651677 56:-0.70373 57:-0.639814 58:-0.761174 59:-0.690971 60:-1 61:-1 
0.5696199131755488 1:-0.536946 2:-0.481791 3:-0.490691 4:-0.206413 5:-1 6:0.481519 7:-0.507813 8:-0.855 9:-1 10:-0.770834 11:-0.739583 12:-0.744792 13:-0.614583 14:-0.897727 15:-1 16:-1 17:-1 18:-1 19:-1 20:-1 21:-1 22:-1 23:-1 24:-1 28:-1 30:0.630196 31:0.0161848 32:-0.325976 33:0.0161848 34:-0.71109 35:-0.325976 36:0.630196 37:0.0161848 38:-0.325976 39:0.0161848 40:-0.71109 41:-0.325976 42:0.0941611 43:0.706268 44:0.671024 45:-0.799545 46:0.283858 47:0.338314 48:0.253799 49:-0.670766 50:-1 51:-1 52:-0.436415 53:-0.0166528 54:-0.142956 55:-0.759345 56:-0.587269 57:-0.526553 58:-0.453525 59:-0.628786 60:-1 61:-1 
0.1646724344726564 1:-0.339901 2:0.063289 3:-0.421505 4:0.0902962 5:-1 6:0.615019 7:-0.791667 8:-0.834285 9:-0.899206 10:-0.825397 11:-0.801587 12:-0.805555 13:-0.853174 14:-0.922078 15:-1 16:-0.755952 17:-0.757142 18:-0.672618 19:-1 20:-1 21:-1 22:-1 23:-1 24:-1 28:-1 30:-0.623884 31:0.405988 32:-0.430356 33:0.405988 34:0.225843 35:-0.430356 36:-0.623884 37:0.405988 38:-0.430356 39:0.405988 40:0.225843 41:-0.430356 42:-0.298633 43:-0.365453 44:-0.256769 45:-0.177105 46:-0.227701 47:-0.37726 48:-0.177626 49:-0.615679 50:-0.917041 51:-1 52:0.388297 53:0.513991 54:0.531641 55:0.684013 56:0.0758796 57:-0.268569 58:0.264013 59:-0.464166 60:-0.781871 61:-1 
0.8835999791602557 1:-0.64532 2:0.603526 3:-0.66157 4:-0.223648 5:-1 6:0.643942 7:-0.603772 8:-0.912453 9:-0.840251 10:-1 11:-1 12:-1 13:-1 14:-1 15:-0.710693 16:-0.613208 17:-1 18:-1 19:-1 20:-1 21:-1 22:-1 23:-1 24:-1 28:-1 30:-0.735067 31:0.229141 32:-0.429918 33:0.229141 34:0.207149 35:-0.429918 36:-0.735067 37:0.229141 38:-0.429918 39:0.229141 40:0.207149 41:-0.429918 42:-0.745749 43:-0.717494 44:-0.539411 45:-1 46:-0.518365 47:-0.390548 48:-0.340618 49:-1 50:-0.43003 51:-1 52:0.240576 53:0.323042 54:0.517933 55:-1 56:0.293948 57:0.16714 58:0.198775 59:-1 60:-0.57458 61:-1 
0.4394452768247055 1:-0.793103 2:0.559678 3:-0.668557 4:-0.286834 5:-1 6:0.597826 7:-0.447368 8:-1 9:-1 10:-1 11:-1 12:-1 13:-0.675438 14:-0.827751 15:-1 16:-1 17:-1 18:-1 19:-1 20:-1 21:-1 22:-1 23:-1 24:-1 28:-1 30:-0.201653 31:0.218281 32:-0.37694 33:0.218281 34:-0.787244 35:-0.37694 36:-0.201653 37:0.218281 38:-0.37694 39:0.218281 40:-0.787244 41:-0.37694 42:-0.601529 43:-0.15941 44:0.101725 45:-1 46:0.135283 47:0.248949 48:-1 49:0.290071 50:-1 51:-1 52:-0.546004 53:-0.470187 54:-0.364255 55:-1 56:-0.685695 57:-0.516848 58:-1 59:-0.490706 60:-1 61:-1 
0.2764087743153561 1:-0.320197 2:-0.454768 3:-0.0971726 4:0.0365565 5:-1 6:-0.332299 7:0.627905 8:-0.784186 9:-0.704651 10:-0.658916 11:-0.806202 12:-0.810078 13:-1 14:-1 15:-0.643412 16:-0.523256 17:-1 18:-0.680233 19:-1 20:-1 21:-1 22:-1 23:-1 24:-1 28:-1 30:-0.462855 31:0.556122 32:0.135263 33:0.556122 34:0.051974 35:0.135263 36:-0.462855 37:0.556122 38:0.135263 39:0.556122 40:0.051974 41:0.135263 42:-0.336738 43:-0.307942 44:-0.22291 45:0.0591819 46:-0.112473 47:-0.0870137 48:0.1725 49:-0.550482 50:-0.688532 51:-1 52:0.572703 53:0.35385 54:0.426307 55:0.122412 56:-0.136961 57:-0.0571778 58:0.0654233 59:-0.728049 60:-0.747952 61:-1 
0.4456863561600972 1:-0.73399 2:0.567208 3:-0.507882 4:0.0299759 5:-0.70248 6:0.466528 7:-0.522726 8:-1 9:-0.807575 10:-1 11:-1 12:-1 13:-0.719696 14:-1 15:-1 16:-0.53409 17:-0.536363 18:-1 19:-1 20:-1 21:-1 22:-1 23:-1 24:-1 28:-1 30:-0.858248 31:-0.189767 32:-0.316409 33:-0.189767 34:-0.165475 35:-0.316409 36:-0.858248 37:-0.189767 38:-0.316409 39:-0.189767 40:-0.165475 41:-0.316409 42:-0.592939 43:-0.329341 44:-0.593623 45:-1 46:-0.754162 47:-0.743441 48:-0.869712 49:-0.70703 50:-1 51:-1 52:0.0868907 53:0.208046 54:0.0333472 55:-1 56:0.00294717 57:-0.196608 58:-0.73963 59:-0.0365142 60:-1 61:-1 
0.7090470601368477 1:-0.586207 2:-0.47458 3:-0.339573 4:-0.171522 5:-1 6:-0.138435 7:0.542372 8:-0.842712 9:-0.712994 10:-0.751412 11:-1 12:-1 13:-1 14:-1 15:-1 16:-0.652541 17:-0.654236 18:-1 19:-1 20:-1 21:-1 22:-1 23:-1 24:-1 28:-1 30:-0.593535 31:0.00126149 32:0.215233 33:0.00126149 34:-0.415865 35:0.215233 36:-0.593535 37:0.00126149 38:0.215233 39:0.00126149 40:-0.415865 41:0.215233 42:-0.176644 43:-0.305634 44:-0.396952 45:-0.937651 46:-0.805839 47:-0.881457 48:-0.691775 49:-0.869838 50:-0.664836 51:-0.73451 52:0.0339788 53:-0.0420458 54:-0.132417 55:-0.617021 56:-0.442944 57:-0.371572 58:-0.300641 59:-0.300387 60:-0.875517 61:-0.69369 
0.6766987605875275 1:-0.950739 2:0.551259 3:-0.668234 4:-0.120227 5:-0.70248 6:0.562475 7:-0.522726 8:-1 9:-1 10:-1 11:-1 12:-1 13:-1 14:-1 15:-1 16:-0.068183 17:-1 18:-1 19:-1 20:-1 21:-1 22:-1 23:-1 24:-1 28:-1 30:-0.782646 31:-0.0334366 32:0.115783 33:-0.0334366 34:-0.599906 35:0.115783 36:-0.782646 37:-0.0334366 38:0.115783 39:-0.0334366 40:-0.599906 41:0.115783 42:-0.975253 43:-0.938805 44:-0.572016 45:-1 46:-0.8628 47:-0.841793 48:-1 49:-0.951008 50:-1 51:-1 52:-0.305726 53:-0.252172 54:-0.235301 55:-1 56:-0.752891 57:-0.720959 58:-1 59:-0.694436 60:-1 61:-1 
0.168938958845709 1:-0.231527 2:-0.78462 3:0.424732 4:0.120448 5:-0.931101 6:-0.84645 7:0.178946 8:0.0256871 9:0.515088 10:-1 11:-0.298245 12:-0.656141 13:-0.870176 14:-0.862201 15:-1 16:-0.568422 17:-0.35579 18:-1 19:-1 20:-1 21:-1 22:-1 23:-1 24:-1 28:-1 30:-0.272329 31:-0.262465 32:-0.572143 33:-0.262465 34:0.000431847 35:-0.572143 36:-0.272329 37:-0.262465 38:-0.572143 39:-0.262465 40:0.000431847 41:-0.572143 42:-0.121604 43:-0.232069 44:-0.175287 45:-0.158088 46:-0.538248 47:-0.519084 48:-0.402222 49:-0.486307 50:-1 51:-1 52:-0.152703 53:-0.116727 54:-0.0564313 55:0.23536 56:0.333892 57:0.607603 58:0.685251 59:0.562292 60:-1 61:-1 
0.1466779554087912 1:-0.625616 2:-0.25878 3:-0.605952 4:-0.644132 5:-1 6:0.466528 7:-0.427274 8:-0.746909 9:-0.84606 10:-0.466669 11:-1 12:-1 13:-1 14:-1 15:-1 16:-1 17:-1 18:-1 19:-1 20:-1 21:-1 22:-1 23:-1 24:-1 28:-1 30:-0.444222 31:-0.376997 32:-0.353501 33:-0.376997 34:-0.548886 35:-0.353501 36:-0.444222 37:-0.376997 38:-0.353501 39:-0.376997 40:-0.548886 41:-0.353501 42:-0.297771 43:-0.11197 44:-0.128618 45:-0.655301 46:-0.266588 47:-0.458418 48:-0.616526 49:-0.415698 50:-0.900407 51:-1 52:-0.341161 53:-0.347526 54:-0.284232 55:-0.682562 56:-0.221613 57:0.0403342 58:-0.64019 59:-0.110139 60:-0.641412 61:-1 
0.6674724831791946 1:-0.655172 2:0.0640335 3:-0.404353 4:0.180122 5:-1 6:0.636281 7:-0.798077 8:-0.910769 9:-0.674359 10:-1 11:-1 12:-0.685897 13:-1 14:-1 15:-1 16:-0.211539 17:-1 18:-0.471153 19:-1 20:-1 21:-1 22:-1 23:-1 24:-1 28:-1 30:-0.643158 31:-0.00797576 32:0.176332 33:-0.00797576 34:-0.440702 35:0.176332 36:-0.643158 37:-0.00797576 38:0.176332 39:-0.00797576 40:-0.440702 41:0.176332 42:-0.467957 43:-0.586243 44:-0.459202 45:-0.343665 46:-0.622784 47:-1 48:-0.53047 49:-0.764332 50:-0.942328 51:-1 52:-0.033581 53:-0.126378 54:-0.110251 55:-0.00881521 56:-0.440834 57:-1 58:-0.371893 59:-0.318525 60:-0.827827 61:-1 
0.6206970810247131 1:-0.438424 2:-0.211199 3:-0.429988 4:-0.184307 5:-1 6:0.471714 7:-0.527028 8:-0.811892 9:-1 10:-0.801803 11:-0.324325 12:-1 13:-1 14:-0.911548 15:-0.585587 16:-1 17:-1 18:-1 19:-1 20:-1 21:-1 22:-1 23:-1 24:-1 28:-1 30:-0.598486 31:-0.330702 32:-0.425088 33:-0.330702 34:-0.216393 35:-0.425088 36:-0.598486 37:-0.330702 38:-0.425088 39:-0.330702 40:-0.216393 41:-0.425088 42:-0.0788315 43:-0.385635 44:-0.388152 45:-0.461733 46:-0.602766 47:-0.638733 48:-0.758969 49:-0.946898 50:-0.500634 51:-1 52:-0.115175 53:0.0202045 54:0.053301 55:-0.0050732 56:0.157024 57:0.314365 58:-0.079949 59:0.287627 60:-0.306117 61:-1 
0.8065307721126123 1:-0.773399 2:0.577565 3:-0.372542 4:0.0416333 5:-1 6:0.46173 7:-0.65 8:-1 9:-0.788333 10:0.0999971 11:-1 12:-0.591667 13:-1 14:-0.836364 15:-1 16:-0.4875 17:-1 18:-1 19:-1 20:-1 21:-1 22:-1 23:-1 24:-1 28:-1 30:-0.617988 31:0.424601 32:-0.349085 33:0.424601 34:-0.432414 35:-0.349085 36:-0.617988 37:0.424601 38:-0.349085 39:0.424601 40:-0.432414 41:-0.349085 42:-0.315191 43:-0.335728 44:-0.188323 45:-1 46:-0.191468 47:-0.280721 48:-0.759091 49:-0.407152 50:-0.968023 51:-1 52:0.173213 53:0.130453 54:-0.0266959 55:-1 56:-0.320338 57:-0.644451 58:-0.86961 59:-0.910844 60:-0.908872 61:-1 
2.086146305620128 1:-0.655172 2:-0.0914472 3:-0.299114 4:0.216615 5:-0.874126 6:0.595689 7:-0.932692 8:-0.910769 9:-0.837179 10:-0.717949 11:-0.0384617 12:-1 13:-0.76282 14:-1 15:-0.705128 16:-1 17:-1 18:-1 19:-1 20:-0.153844 21:-1 22:-1 23:-1 24:-1 28:-1 30:-0.572828 31:0.0820861 32:0.0604181 33:0.0820861 34:-0.876458 35:0.0604181 36:-0.572828 37:0.0820861 38:0.0604181 39:0.0820861 40:-0.876458 41:0.0604181 42:-0.527444 43:-0.431445 44:-0.212943 45:-0.18068 46:-0.0385045 47:-0.00238733 48:-0.0492452 49:-0.514303 50:-0.919375 51:-1 52:-0.724782 53:-0.788593 54:-0.631574 55:-0.368659 56:-0.532649 57:-0.514868 58:-0.668788 59:-0.529243 60:-0.704522 61:-1 
3.004964985052418 1:-0.694581 2:-0.267388 3:-0.578039 4:-0.556727 5:-0.863637 6:0.382573 7:-0.489585 8:-0.806666 9:-0.470832 10:-0.694446 11:-0.652778 12:-1 13:-1 14:-1 15:-1 16:-1 17:-1 18:-1 19:-1 20:-1 21:-1 22:-1 23:-1 24:-1 28:-1 30:-0.588281 31:0.136766 32:-0.307027 33:0.136766 34:-0.863014 35:-0.307027 36:-0.588281 37:0.136766 38:-0.307027 39:0.136766 40:-0.863014 41:-0.307027 42:-0.505996 43:-0.45024 44:-0.937755 45:-0.390492 46:-0.168673 47:0.0224628 48:0.111646 49:-0.219805 50:-0.514052 51:-0.947809 52:-0.593233 53:-0.828665 54:-0.729665 55:-0.638524 56:-0.464464 57:-0.464519 58:-0.553159 59:-0.631612 60:-0.909912 61:-0.744129 
0.1774253744548945 1:-0.507389 2:0.0472753 3:-0.313523 4:0.00373946 5:-1 6:0.443614 7:-0.738806 8:-0.722985 9:-0.620895 10:-1 11:-0.502488 12:-1 13:-1 14:-0.609227 15:-0.771144 16:-1 17:-1 18:-1 19:-1 20:-1 21:-1 22:-1 23:-1 24:-1 28:-1 30:0.0617254 31:-0.143256 32:-0.203941 33:-0.143256 34:-0.618732 35:-0.203941 36:0.0617254 37:-0.143256 38:-0.203941 39:-0.143256 40:-0.618732 41:-0.203941 42:0.349766 43:0.411105 44:-0.77284 45:0.409283 46:0.384155 47:0.235042 48:0.34526 49:0.328298 50:-1 51:-1 52:-0.652183 53:-0.111217 54:-0.877108 55:-0.562297 56:-0.535556 57:-0.443414 58:-0.658354 59:-0.406199 60:-1 61:-1 
0.1805087716723227 1:-0.359606 2:0.0570306 3:-0.337916 4:0.0267143 5:-1 6:0.424403 7:-0.487807 8:-0.886829 9:-0.896748 10:-0.821139 11:-0.796748 12:-1 13:-0.54878 14:-0.840355 15:-0.813009 16:-0.750001 17:-1 18:-1 19:-1 20:-1 21:-1 22:-1 23:-1 24:-1 28:-1 30:-0.35854 31:0.57674 32:0.025377 33:0.57674 34:-0.160324 35:0.025377 36:-0.35854 37:0.57674 38:0.025377 39:0.57674 40:-0.160324 41:0.025377 42:-0.168054 43:0.141442 44:-0.585238 45:0.085353 46:0.0781175 47:0.0633355 48:0.141377 49:0.12178 50:-0.682862 51:-1 52:0.129318 53:0.235759 54:0.246984 55:0.403359 56:0.0494484 57:-0.233835 58:-0.188176 59:-0.0891599 60:-0.642544 61:-1 
0.02431186448676954 1:-0.20197 2:-0.787428 3:0.427065 4:0.127883 5:-1 6:-0.767094 7:0.178572 8:-0.100405 9:0.382313 10:-0.85034 11:-0.319728 12:-0.833333 13:-0.622449 14:-0.866419 15:-0.843537 16:-0.790816 17:-0.375511 18:-1 19:-1 20:-1 21:-1 22:-1 23:-1 24:-1 28:-1 30:-0.198384 31:-0.322018 32:0.242705 33:-0.322018 34:-0.0693144 35:0.242705 36:-0.198384 37:-0.322018 38:0.242705 39:-0.322018 40:-0.0693144 41:0.242705 42:-0.0402254 43:0.0680193 44:-0.0151033 45:-0.367622 46:-0.0942741 47:-0.462965 48:-0.192578 49:-0.777385 50:-1 51:-1 52:-0.106173 53:-0.262814 54:-0.164798 55:0.473572 56:0.240385 57:0.592625 58:0.477723 59:-0.519945 60:-1 61:-1 
0.1909113241238447 1:-0.339901 2:-0.48919 3:-0.236816 4:0.0751401 5:-1 6:0.413984 7:-0.625 8:-0.889524 9:-0.899206 10:-0.650795 11:-0.603175 12:-0.611112 13:-0.559523 14:-0.844156 15:-0.634922 16:-1 17:-1 18:-1 19:-1 20:-1 21:-1 22:-1 23:-1 24:-1 28:-1 30:0.455224 31:0.0242932 32:-0.289922 33:0.0242932 34:-0.691204 35:-0.289922 36:0.455224 37:0.0242932 38:-0.289922 39:0.0242932 40:-0.691204 41:-0.289922 42:0.296213 43:0.610801 44:0.667596 45:-0.482588 46:0.318636 47:0.390916 48:-0.556492 49:0.229232 50:-1 51:-1 52:-0.364119 53:-0.0873035 54:-0.098048 55:-0.651398 56:-0.165209 57:-0.253363 58:-0.407664 59:-0.487889 60:-1 61:-1 
0.04459200641091079 1:-0.517241 2:-0.459726 3:-0.288167 4:-0.244223 5:-1 6:-0.173129 7:0.484846 8:-0.859394 9:-0.871717 10:-0.111113 11:-0.747475 12:-1 13:-0.813131 14:-1 15:-1 16:-1 17:-0.690909 18:-1 19:-1 20:-1 21:-1 22:-1 23:-1 24:-1 28:-1 30:-0.625909 31:-0.0400406 32:0.208171 33:-0.0400406 34:-0.403424 35:0.208171 36:-0.625909 37:-0.0400406 38:0.208171 39:-0.0400406 40:-0.403424 41:0.208171 42:-0.864162 43:-0.933642 44:-0.279062 45:-0.427511 46:-0.907032 47:-0.875698 48:-0.82949 49:-0.610518 50:-0.806282 51:-1 52:0.0385916 53:-0.0172735 54:0.0598016 55:-0.162936 56:-0.441004 57:-0.380735 58:-0.35374 59:-0.431153 60:-0.776999 61:-1 
0.7489979971621724 1:-0.044335 2:-0.595763 3:0.110488 4:0.157547 5:-1 6:-0.476122 7:0.596489 8:-0.715087 9:-0.480116 10:-0.74269 11:-0.561403 12:-0.856725 13:-1 14:-0.942584 15:-0.596492 16:0.0789475 17:-1 18:-1 19:-1 20:-1 21:-1 22:-1 23:-1 24:-1 28:-1 30:-0.0225499 31:0.203119 32:-0.210523 33:0.203119 34:-0.599944 35:-0.210523 36:-0.0225499 37:0.203119 38:-0.210523 39:0.203119 40:-0.599944 41:-0.210523 42:0.178335 43:0.3549 44:0.590184 45:0.555188 46:0.451161 47:0.748303 48:0.633094 49:-0.0992613 50:-0.260943 51:-0.695447 52:-0.286845 53:-0.196456 54:-0.305373 55:-0.250444 56:-0.724458 57:-0.705233 58:-0.5239 59:-0.769042 60:-0.808519 61:-0.746866 
0.2639456505878017 1:-0.862069 2:0.574169 3:-0.307925 4:0.246795 5:-1 6:0.633664 7:-0.887097 8:-1 9:-0.726881 10:-1 11:-1 12:0.0537628 13:-1 14:-0.788856 15:-1 16:-1 17:-1 18:-0.112903 19:-1 20:-1 21:-1 22:-1 23:-1 24:-1 28:-1 30:-0.645729 31:0.122921 32:0.0730002 33:0.122921 34:-0.898505 35:0.0730002 36:-0.645729 37:0.122921 38:0.0730002 39:0.122921 40:-0.898505 41:0.0730002 42:-0.665908 43:-0.637653 44:-0.353907 45:-1 46:-0.111659 47:-0.256942 48:-0.729685 49:-0.722671 50:-0.940035 51:-1 52:-0.927387 53:-0.88657 54:-0.656617 55:-1 56:-0.525444 57:-0.740576 58:-0.953039 59:-0.981533 60:-0.862355 61:-1 
0.3713789781002031 1:-0.615764 2:-0.467001 3:-0.275745 4:-0.0710065 5:-1 6:-0.050908 7:0.374998 8:-0.834285 9:-0.84881 10:-0.738097 11:-0.702382 12:-1 13:-1 14:-1 15:-1 16:-1 17:-0.271428 18:-1 19:-1 20:-1 21:-1 22:-1 23:-1 24:-1 28:-1 30:-0.651003 31:-0.0187573 32:0.228097 33:-0.0187573 34:-0.455435 35:0.228097 36:-0.651003 37:-0.0187573 38:0.228097 39:-0.0187573 40:-0.455435 41:0.228097 42:-0.886302 43:-0.496791 44:-0.551238 45:-0.572735 46:-0.873795 47:-0.9481 48:-0.819578 49:-0.671445 50:-0.819763 51:-1 52:0.0156249 53:-0.0509898 54:-0.124767 55:-0.330658 56:-0.442779 57:-0.586939 58:-0.336373 59:-0.628604 60:-0.779643 61:-1 
0.3035604428066943 1:-0.408867 2:0.0433206 3:-0.230393 4:0.144091 5:-1 6:0.493942 7:-0.818182 8:-0.819221 9:-0.890043 10:-0.619049 11:-0.5671 12:-0.787879 13:-0.519481 14:-0.829989 15:-1 16:-0.733767 17:-0.735065 18:-1 19:-1 20:-1 21:-1 22:-1 23:-1 24:-1 28:-1 30:-0.0589314 31:0.0912409 32:-0.138096 33:0.0912409 34:-0.655716 35:-0.138096 36:-0.0589314 37:0.0912409 38:-0.138096 39:0.0912409 40:-0.655716 41:-0.138096 42:0.267872 43:0.385877 44:-0.333516 45:0.359934 46:0.210316 47:0.28217 48:-0.194141 49:0.359241 50:-0.806825 51:-1 52:-0.564697 53:-0.182178 54:-0.580861 55:-0.494694 56:-0.542778 57:-0.595451 58:-0.925573 59:-0.642319 60:-0.80388 61:-1 
0.08088294522774414 1:-0.477833 2:-0.364684 3:-0.671767 4:-0.398282 5:-0.906494 6:0.680354 7:-0.85 8:-0.801143 9:-0.879047 10:-0.580954 11:-0.761905 12:-1 13:-1 14:-1 15:-0.780953 16:-1 17:-1 18:-1 19:-1 20:-1 21:-1 22:-1 23:-1 24:-1 28:-1 30:-0.104658 31:-0.0628409 32:-0.602125 33:-0.0628409 34:-0.80547 35:-0.602125 36:-0.104658 37:-0.0628409 38:-0.602125 39:-0.0628409 40:-0.80547 41:-0.602125 42:-0.336151 43:-0.226982 44:-0.645343 45:-0.0993895 46:-0.131924 47:0.118009 48:-0.0305993 49:0.263423 50:-0.710641 51:-1 52:-0.722613 53:-0.694574 54:-0.414305 55:-0.283907 56:-0.255051 57:-0.392778 58:-0.462866 59:-0.365481 60:-0.707824 61:-1 
0.5797413295599017 1:0.448276 2:-0.741767 3:-0.323273 4:-0.311191 5:-0.960089 6:-0.000342276 7:-0.0396357 8:-0.519022 9:-0.845121 10:-0.463416 11:-0.695122 12:-0.601627 13:-1 14:-0.960089 15:-1 16:-1 17:-0.87561 18:-1 19:-1 20:-1 21:-1 22:-1 23:-1 24:-1 28:-1 30:-0.213524 31:0.0514245 32:0.0456314 33:0.0514245 34:0.324626 35:0.0456314 36:-0.213524 37:0.0514245 38:0.0456314 39:0.0514245 40:0.324626 41:0.0456314 42:-0.0101513 43:0.322314 44:0.253728 45:0.10703 46:-0.219172 47:-0.121554 48:0.0204305 49:-0.631548 50:-0.473285 51:-0.766271 52:-0.0335824 53:0.320055 54:0.440588 55:0.780249 56:0.580254 57:0.799625 58:0.848966 59:0.87496 60:0.442363 61:-0.160122 
0.02298653400198725 1:-0.448276 2:0.0403669 3:-0.402293 4:-0.0366617 5:-1 6:0.492814 7:-0.712329 8:-0.809315 9:-0.536072 10:-1 11:-0.543378 12:-0.776256 13:-1 14:-0.910337 15:-1 16:-0.719179 17:-0.720549 18:-1 19:-1 20:-1 21:-1 22:-1 23:-1 24:-1 28:-1 30:-0.00253253 31:-0.129189 32:-0.190697 33:-0.129189 34:-0.599377 35:-0.190697 36:-0.00253253 37:-0.129189 38:-0.190697 39:-0.129189 40:-0.599377 41:-0.190697 42:0.309796 43:0.433761 44:-0.259321 45:0.420336 46:0.31744 47:0.256846 48:-0.644028 49:0.318694 50:-0.832831 51:-0.843443 52:-0.612346 53:-0.150599 54:-0.683998 55:-0.513995 56:-0.423865 57:-0.612046 58:-0.804942 59:-0.517688 60:-0.769963 61:-0.854522 
0.9029246427528275 1:0.261084 2:-0.665592 3:0.0911523 4:-0.225175 5:-1 6:-0.762934 7:0.568965 8:-0.135999 9:-0.299309 10:-0.696552 11:-0.08046 12:-0.436781 13:-1 14:-0.864577 15:-1 16:-0.858621 17:-1 18:-1 19:-1 20:-1 21:-1 22:-1 23:-1 24:-1 28:-1 30:0.0611077 31:-0.393036 32:-0.459297 33:-0.393036 34:0.0531558 35:-0.459297 36:0.0611077 37:-0.393036 38:-0.459297 39:-0.393036 40:0.0531558 41:-0.459297 42:0.425424 43:0.65914 44:0.602893 45:0.423258 46:0.0192283 47:0.0672939 48:0.0727382 49:0.0602884 50:-0.147502 51:-1 52:-0.173188 53:-0.122778 54:0.325301 55:0.216301 56:0.635493 57:0.750074 58:0.953252 59:0.225142 60:-0.343542 61:-1 
2.044883700223403 1:-0.586207 2:0.536917 3:-0.689105 4:-0.238607 5:-1 6:0.684443 7:-0.70339 8:-0.842712 9:-0.856496 10:-1 11:-1 12:-1 13:-1 14:-0.88906 15:-1 16:-0.652541 17:-1 18:-1 19:-1 20:-1 21:-1 22:-1 23:-1 24:-1 28:-1 30:0.1553 31:0.246443 32:0.0939091 33:0.246443 34:-0.776979 35:0.0939091 36:0.1553 37:0.246443 38:0.0939091 39:0.246443 40:-0.776979 41:0.0939091 42:-0.0873956 43:0.148115 44:-0.231482 45:0.566489 46:0.590444 47:-0.0186815 48:0.862076 49:0.556079 50:-0.209529 51:-1 52:-0.699455 53:-0.596705 54:-0.513626 55:-0.273734 56:-0.641505 57:-0.891689 58:-0.788076 59:-0.58893 60:-0.951678 61:-1 
0.5937739733110773 1:-0.812808 2:0.766626 3:-0.520422 4:-0.342698 5:-1 6:0.39723 7:-0.513889 8:-0.742222 9:-0.529628 10:-1 11:-1 12:-0.092592 13:-1 14:-1 15:-1 16:-1 17:-1 18:-1 19:-1 20:-1 21:-1 22:-1 23:-1 24:-1 28:-1 30:-0.469654 31:0.208212 32:0.019151 33:0.208212 34:-0.730873 35:0.019151 36:-0.469654 37:0.208212 38:0.019151 39:0.208212 40:-0.730873 41:0.019151 42:-0.67491 43:-0.38727 44:-0.930288 45:-0.269579 46:-0.393795 47:-0.706756 48:-0.150298 49:-1 50:-0.780362 51:-1 52:-0.423828 53:-0.627489 54:-0.697882 55:-0.400597 56:-0.228599 57:-0.540987 58:-0.697787 59:-1 60:-0.617672 61:-1 
0.3416088954224667 1:-0.91133 2:0.553081 3:-0.752836 4:-0.525773 5:-1 6:0.636281 7:-0.596153 8:-1 9:-0.674359 10:-1 11:-0.358975 12:-1 13:-1 14:-1 15:-1 16:-1 17:-1 18:-1 19:-1 20:-1 21:-1 22:-1 23:-1 24:-1 28:-1 30:-0.780067 31:-0.00350043 32:0.106096 33:-0.00350043 34:-0.52801 35:0.106096 36:-0.780067 37:-0.00350043 38:0.106096 39:-0.00350043 40:-0.52801 41:0.106096 42:-0.987352 43:-0.956107 44:-0.806713 45:-1 46:-0.760679 47:-0.777143 48:-1 49:-0.895053 50:-1 51:-1 52:-0.401455 53:-0.0915981 54:-0.0715936 55:-1 56:-0.478907 57:-0.47013 58:-1 59:-0.666515 60:-1 61:-1 
0.6416805481655133 1:-0.891626 2:0.558128 3:-0.672429 4:-0.160214 5:-1 6:0.740666 7:-0.75 8:-1 9:-1 10:-1 11:-1 12:-1 13:-0.559523 14:-0.766234 15:-1 16:-1 17:-1 18:-1 19:-1 20:-1 21:-1 22:-1 23:-1 24:-1 28:-1 30:-0.775647 31:0.0614823 32:0.093705 33:0.0614823 34:-0.547975 35:0.093705 36:-0.775647 37:0.0614823 38:0.093705 39:0.0614823 40:-0.547975 41:0.093705 42:-0.864994 43:-0.769075 44:-0.454073 45:-0.344214 46:-0.676899 47:-1 48:-0.957586 49:-0.912039 50:-1 51:-1 52:-0.12678 53:-0.234073 54:-0.277819 55:-0.195233 56:-0.510091 57:-1 58:-0.435138 59:-0.376394 60:-1 61:-1 
0.9773593004867951 1:-0.921182 2:0.620278 3:-0.719303 4:-0.556419 5:-1 6:0.53561 7:-0.44 8:-1 9:-1 10:0.17333 11:-1 12:-1 13:-1 14:-1 15:-1 16:-1 17:-1 18:-1 19:-1 20:-1 21:-1 22:-1 23:-1 24:-1 28:-1 30:-0.778068 31:0.165609 32:0.0288238 33:0.165609 34:-0.724186 35:0.0288238 36:-0.778068 37:0.165609 38:0.0288238 39:0.165609 40:-0.724186 41:0.0288238 42:-0.668648 43:-0.633682 44:-0.416647 45:-0.54343 46:-0.52476 47:-0.89283 48:-1 49:-0.750555 50:-0.897659 51:-1 52:-0.650319 53:-0.251234 54:-0.869017 55:-0.175558 56:-0.59295 57:-0.771801 58:-1 59:-0.82893 60:-0.766039 61:-1 
0.259765910995445 1:-0.241379 2:-0.793601 3:0.471266 4:0.10299 5:-1 6:-0.844086 7:0.154254 8:-0.0127647 9:0.621277 10:-0.843972 11:-0.822695 12:-0.131206 13:-0.868794 14:-0.791103 15:-1 16:-0.781915 17:-0.348936 18:-1 19:-1 20:-1 21:-1 22:-1 23:-1 24:-1 28:-1 30:-0.25937 31:-0.253815 32:-0.517443 33:-0.253815 34:-0.0701339 35:-0.517443 36:-0.25937 37:-0.253815 38:-0.517443 39:-0.253815 40:-0.0701339 41:-0.517443 42:-0.0662704 43:0.249744 44:-0.388743 45:-0.0272309 46:-0.287822 47:-0.48252 48:-0.597239 49:-0.497372 50:-0.817394 51:-1 52:-0.0371205 53:-0.174811 54:-0.526799 55:-0.0234775 56:0.233797 57:0.317875 58:0.659066 59:0.330995 60:-0.565992 61:-1 
0.2893126963199011 1:-0.211823 2:-0.760206 3:0.488024 4:0.189686 5:-1 6:-0.807509 7:0.0824722 8:0.0523717 9:0.396563 10:-0.243988 11:-1 12:-0.66323 13:-0.745704 14:-0.865042 15:-0.841924 16:-1 17:0.0515467 18:-1 19:-1 20:-1 21:-1 22:-1 23:-1 24:-1 28:-1 30:-0.315587 31:-0.242527 32:-0.545038 33:-0.242527 34:-0.032336 35:-0.545038 36:-0.315587 37:-0.242527 38:-0.545038 39:-0.242527 40:-0.032336 41:-0.545038 42:0.0281666 43:-0.16465 44:-0.153625 45:-0.342736 46:-0.507737 47:-0.542647 48:-0.459106 49:-0.546679 50:-1 51:-1 52:-0.138345 53:-0.0864367 54:0.0144409 55:0.54333 56:0.275877 57:0.498315 58:0.51044 59:0.33096 60:-1 61:-1 
1.834790475715387 1:-0.921182 2:0.56679 3:-0.223765 4:0.282761 5:-1 6:0.366741 7:-0.44 8:-1 9:-1 10:-1 11:-1 12:-0.346667 13:-0.506666 14:-1 15:0.226665 16:-1 17:-1 18:-1 19:-1 20:-1 21:-1 22:-1 23:-1 24:-1 28:-1 30:-0.780142 31:-0.0759067 32:-0.388704 33:-0.0759067 34:-0.809577 35:-0.388704 36:-0.780142 37:-0.0759067 38:-0.388704 39:-0.0759067 40:-0.809577 41:-0.388704 42:-0.886612 43:-0.880945 44:-0.490959 45:-1 46:-0.669579 47:-0.732507 48:-1 49:-0.774295 50:-1 51:-1 52:-0.947587 53:-0.883347 54:-0.582387 55:-1 56:-0.491813 57:-0.386569 58:-1 59:-0.307337 60:-1 61:-1 
0.3450624667312147 1:-0.527094 2:0.0823663 3:-0.221808 4:0.270304 5:-1 6:0.457671 7:-0.623078 8:-0.928615 9:-0.739487 10:-1 11:-0.74359 12:-1 13:-0.810256 14:-0.697903 15:-0.764103 16:-1 17:-0.372308 18:-1 19:-1 20:-1 21:-1 22:-1 23:-1 24:-1 28:-1 30:-0.73145 31:-0.0115315 32:-0.456647 33:-0.0115315 34:0.0267021 35:-0.456647 36:-0.73145 37:-0.0115315 38:-0.456647 39:-0.0115315 40:0.0267021 41:-0.456647 42:-0.638145 43:-0.498021 44:-0.444199 45:-0.499238 46:-0.671256 47:-0.653597 48:-0.578962 49:-0.780487 50:-0.535831 51:-1 52:0.264897 53:0.382856 54:0.408308 55:0.543622 56:0.0489209 57:-0.385668 58:0.194032 59:-0.554725 60:-0.700485 61:-1 
0.3711489444952127 1:-0.320197 2:-0.531147 3:-0.510598 4:-0.153665 5:-1 6:0.330415 7:-0.0639537 8:-0.838139 9:-0.90155 10:-1 11:-1 12:-1 13:-1 14:-1 15:-1 16:-0.761628 17:-1 18:-1 19:-1 20:-1 21:-1 22:-0.244186 23:-1 24:-1 28:-1 30:0.114475 31:-0.00443911 32:-0.098846 33:-0.00443911 34:-0.68814 35:-0.098846 36:0.114475 37:-0.00443911 38:-0.098846 39:-0.00443911 40:-0.68814 41:-0.098846 42:0.319581 43:0.391021 44:0.380542 45:0.35998 46:-0.0298931 47:0.155191 48:0.290109 49:-0.749356 50:-0.819889 51:-0.986341 52:-0.00120414 53:-0.0998913 54:-0.235925 55:-0.479042 56:-0.343947 57:-0.29732 58:-0.3927 59:-0.64695 60:-0.940571 61:-0.575185 
0.2441510898250149 1:-0.507389 2:-0.362088 3:-0.124326 4:0.286638 5:-0.902307 6:0.0340437 7:-0.0597012 8:-0.792239 9:-0.620895 10:-1 11:-0.502488 12:-1 13:-1 14:-1 15:-0.313434 16:-0.694029 17:-1 18:-1 19:-1 20:-1 21:-0.25373 22:-1 23:-1 24:-1 28:-1 30:-0.743724 31:-0.194915 32:-0.388758 33:-0.194915 34:-0.196169 35:-0.388758 36:-0.743724 37:-0.194915 38:-0.388758 39:-0.194915 40:-0.196169 41:-0.388758 42:-0.238772 43:-0.552547 44:-0.251095 45:-0.742327 46:-0.669854 47:-0.728039 48:-0.574201 49:-0.983834 50:-0.62679 51:-1 52:-0.0562946 53:0.0993809 54:0.109323 55:0.259311 56:0.038251 57:0.144562 58:0.0474922 59:-0.509293 60:-0.785328 61:-1 
